digraph Tree {
node [shape=box, style="filled, rounded", color="black", fontname=helvetica] ;
edge [fontname=helvetica] ;
0 [label="discretization_sqft_living <= 0.5\ngini = 0.494\nsamples = 564\nvalue = [314, 250]\nclass = False", fillcolor="#fae5d7"] ;
1 [label="discretization_sqft_basement <= 1.5\ngini = 0.476\nsamples = 313\nvalue = [122, 191]\nclass = True", fillcolor="#b7dcf6"] ;
0 -> 1 [labeldistance=2.5, labelangle=45, headlabel="True"] ;
2 [label="discretization_bathrooms <= 0.5\ngini = 0.46\nsamples = 295\nvalue = [106, 189]\nclass = True", fillcolor="#a8d4f4"] ;
1 -> 2 ;
3 [label="discretization_grade <= 2.5\ngini = 0.492\nsamples = 153\nvalue = [67, 86]\nclass = True", fillcolor="#d3e9f9"] ;
2 -> 3 ;
4 [label="discretization_condition <= 0.5\ngini = 0.5\nsamples = 131\nvalue = [64, 67]\nclass = True", fillcolor="#f6fbfe"] ;
3 -> 4 ;
5 [label="discretization_yr_built <= 0.5\ngini = 0.49\nsamples = 72\nvalue = [41, 31]\nclass = False", fillcolor="#f9e0cf"] ;
4 -> 5 ;
6 [label="discretization_sqft_lot <= 0.5\ngini = 0.44\nsamples = 52\nvalue = [35, 17]\nclass = False", fillcolor="#f2be99"] ;
5 -> 6 ;
7 [label="discretization_yr_renovated <= 0.5\ngini = 0.408\nsamples = 49\nvalue = [35, 14]\nclass = False", fillcolor="#efb388"] ;
6 -> 7 ;
8 [label="discretization_floors <= 0.5\ngini = 0.38\nsamples = 47\nvalue = [35, 12]\nclass = False", fillcolor="#eeac7d"] ;
7 -> 8 ;
9 [label="discretization_sqft_above <= 0.5\ngini = 0.422\nsamples = 33\nvalue = [23, 10]\nclass = False", fillcolor="#f0b88f"] ;
8 -> 9 ;
10 [label="discretization_bedrooms <= 0.5\ngini = 0.498\nsamples = 15\nvalue = [8, 7]\nclass = False", fillcolor="#fcefe6"] ;
9 -> 10 ;
11 [label="gini = 0.0\nsamples = 2\nvalue = [0, 2]\nclass = True", fillcolor="#399de5"] ;
10 -> 11 ;
12 [label="discretization_sqft_basement <= 0.5\ngini = 0.473\nsamples = 13\nvalue = [8, 5]\nclass = False", fillcolor="#f5d0b5"] ;
10 -> 12 ;
13 [label="gini = 0.0\nsamples = 1\nvalue = [1, 0]\nclass = False", fillcolor="#e58139"] ;
12 -> 13 ;
14 [label="discretization_grade <= 1.0\ngini = 0.486\nsamples = 12\nvalue = [7, 5]\nclass = False", fillcolor="#f8dbc6"] ;
12 -> 14 ;
15 [label="discretization_sqft_living15 <= 1.0\ngini = 0.5\nsamples = 6\nvalue = [3, 3]\nclass = False", fillcolor="#ffffff"] ;
14 -> 15 ;
16 [label="gini = 0.5\nsamples = 2\nvalue = [1, 1]\nclass = False", fillcolor="#ffffff"] ;
15 -> 16 ;
17 [label="gini = 0.5\nsamples = 4\nvalue = [2, 2]\nclass = False", fillcolor="#ffffff"] ;
15 -> 17 ;
18 [label="gini = 0.444\nsamples = 6\nvalue = [4, 2]\nclass = False", fillcolor="#f2c09c"] ;
14 -> 18 ;
19 [label="discretization_sqft_living15 <= 1.0\ngini = 0.278\nsamples = 18\nvalue = [15, 3]\nclass = False", fillcolor="#ea9a61"] ;
9 -> 19 ;
20 [label="discretization_bedrooms <= 0.5\ngini = 0.397\nsamples = 11\nvalue = [8, 3]\nclass = False", fillcolor="#efb083"] ;
19 -> 20 ;
21 [label="gini = 0.0\nsamples = 1\nvalue = [1, 0]\nclass = False", fillcolor="#e58139"] ;
20 -> 21 ;
22 [label="discretization_bedrooms <= 1.5\ngini = 0.42\nsamples = 10\nvalue = [7, 3]\nclass = False", fillcolor="#f0b78e"] ;
20 -> 22 ;
23 [label="gini = 0.444\nsamples = 9\nvalue = [6, 3]\nclass = False", fillcolor="#f2c09c"] ;
22 -> 23 ;
24 [label="gini = 0.0\nsamples = 1\nvalue = [1, 0]\nclass = False", fillcolor="#e58139"] ;
22 -> 24 ;
25 [label="gini = 0.0\nsamples = 7\nvalue = [7, 0]\nclass = False", fillcolor="#e58139"] ;
19 -> 25 ;
26 [label="discretization_bedrooms <= 0.5\ngini = 0.245\nsamples = 14\nvalue = [12, 2]\nclass = False", fillcolor="#e9965a"] ;
8 -> 26 ;
27 [label="gini = 0.0\nsamples = 6\nvalue = [6, 0]\nclass = False", fillcolor="#e58139"] ;
26 -> 27 ;
28 [label="discretization_sqft_living15 <= 1.0\ngini = 0.375\nsamples = 8\nvalue = [6, 2]\nclass = False", fillcolor="#eeab7b"] ;
26 -> 28 ;
29 [label="discretization_sqft_basement <= 0.5\ngini = 0.278\nsamples = 6\nvalue = [5, 1]\nclass = False", fillcolor="#ea9a61"] ;
28 -> 29 ;
30 [label="gini = 0.32\nsamples = 5\nvalue = [4, 1]\nclass = False", fillcolor="#eca06a"] ;
29 -> 30 ;
31 [label="gini = 0.0\nsamples = 1\nvalue = [1, 0]\nclass = False", fillcolor="#e58139"] ;
29 -> 31 ;
32 [label="gini = 0.5\nsamples = 2\nvalue = [1, 1]\nclass = False", fillcolor="#ffffff"] ;
28 -> 32 ;
33 [label="gini = 0.0\nsamples = 2\nvalue = [0, 2]\nclass = True", fillcolor="#399de5"] ;
7 -> 33 ;
34 [label="gini = 0.0\nsamples = 3\nvalue = [0, 3]\nclass = True", fillcolor="#399de5"] ;
6 -> 34 ;
35 [label="discretization_yr_built <= 1.5\ngini = 0.42\nsamples = 20\nvalue = [6, 14]\nclass = True", fillcolor="#8ec7f0"] ;
5 -> 35 ;
36 [label="discretization_sqft_above <= 0.5\ngini = 0.305\nsamples = 16\nvalue = [3, 13]\nclass = True", fillcolor="#67b4eb"] ;
35 -> 36 ;
37 [label="discretization_sqft_basement <= 0.5\ngini = 0.153\nsamples = 12\nvalue = [1, 11]\nclass = True", fillcolor="#4ba6e7"] ;
36 -> 37 ;
38 [label="discretization_grade <= 1.0\ngini = 0.375\nsamples = 4\nvalue = [1, 3]\nclass = True", fillcolor="#7bbeee"] ;
37 -> 38 ;
39 [label="gini = 0.444\nsamples = 3\nvalue = [1, 2]\nclass = True", fillcolor="#9ccef2"] ;
38 -> 39 ;
40 [label="gini = 0.0\nsamples = 1\nvalue = [0, 1]\nclass = True", fillcolor="#399de5"] ;
38 -> 40 ;
41 [label="gini = 0.0\nsamples = 8\nvalue = [0, 8]\nclass = True", fillcolor="#399de5"] ;
37 -> 41 ;
42 [label="discretization_sqft_living15 <= 1.0\ngini = 0.5\nsamples = 4\nvalue = [2, 2]\nclass = False", fillcolor="#ffffff"] ;
36 -> 42 ;
43 [label="discretization_bedrooms <= 0.5\ngini = 0.444\nsamples = 3\nvalue = [1, 2]\nclass = True", fillcolor="#9ccef2"] ;
42 -> 43 ;
44 [label="gini = 0.5\nsamples = 2\nvalue = [1, 1]\nclass = False", fillcolor="#ffffff"] ;
43 -> 44 ;
45 [label="gini = 0.0\nsamples = 1\nvalue = [0, 1]\nclass = True", fillcolor="#399de5"] ;
43 -> 45 ;
46 [label="gini = 0.0\nsamples = 1\nvalue = [1, 0]\nclass = False", fillcolor="#e58139"] ;
42 -> 46 ;
47 [label="discretization_grade <= 1.0\ngini = 0.375\nsamples = 4\nvalue = [3, 1]\nclass = False", fillcolor="#eeab7b"] ;
35 -> 47 ;
48 [label="gini = 0.0\nsamples = 1\nvalue = [0, 1]\nclass = True", fillcolor="#399de5"] ;
47 -> 48 ;
49 [label="gini = 0.0\nsamples = 3\nvalue = [3, 0]\nclass = False", fillcolor="#e58139"] ;
47 -> 49 ;
50 [label="discretization_sqft_lot <= 0.5\ngini = 0.476\nsamples = 59\nvalue = [23, 36]\nclass = True", fillcolor="#b8dcf6"] ;
4 -> 50 ;
51 [label="discretization_sqft_living15 <= 0.5\ngini = 0.459\nsamples = 56\nvalue = [20, 36]\nclass = True", fillcolor="#a7d3f3"] ;
50 -> 51 ;
52 [label="discretization_sqft_basement <= 0.5\ngini = 0.269\nsamples = 25\nvalue = [4, 21]\nclass = True", fillcolor="#5fb0ea"] ;
51 -> 52 ;
53 [label="discretization_grade <= 1.0\ngini = 0.397\nsamples = 11\nvalue = [3, 8]\nclass = True", fillcolor="#83c2ef"] ;
52 -> 53 ;
54 [label="discretization_bedrooms <= 0.5\ngini = 0.346\nsamples = 9\nvalue = [2, 7]\nclass = True", fillcolor="#72b9ec"] ;
53 -> 54 ;
55 [label="discretization_condition <= 1.5\ngini = 0.444\nsamples = 6\nvalue = [2, 4]\nclass = True", fillcolor="#9ccef2"] ;
54 -> 55 ;
56 [label="discretization_yr_built <= 1.0\ngini = 0.48\nsamples = 5\nvalue = [2, 3]\nclass = True", fillcolor="#bddef6"] ;
55 -> 56 ;
57 [label="gini = 0.444\nsamples = 3\nvalue = [1, 2]\nclass = True", fillcolor="#9ccef2"] ;
56 -> 57 ;
58 [label="gini = 0.5\nsamples = 2\nvalue = [1, 1]\nclass = False", fillcolor="#ffffff"] ;
56 -> 58 ;
59 [label="gini = 0.0\nsamples = 1\nvalue = [0, 1]\nclass = True", fillcolor="#399de5"] ;
55 -> 59 ;
60 [label="gini = 0.0\nsamples = 3\nvalue = [0, 3]\nclass = True", fillcolor="#399de5"] ;
54 -> 60 ;
61 [label="discretization_bedrooms <= 0.5\ngini = 0.5\nsamples = 2\nvalue = [1, 1]\nclass = False", fillcolor="#ffffff"] ;
53 -> 61 ;
62 [label="gini = 0.0\nsamples = 1\nvalue = [0, 1]\nclass = True", fillcolor="#399de5"] ;
61 -> 62 ;
63 [label="gini = 0.0\nsamples = 1\nvalue = [1, 0]\nclass = False", fillcolor="#e58139"] ;
61 -> 63 ;
64 [label="discretization_bedrooms <= 0.5\ngini = 0.133\nsamples = 14\nvalue = [1, 13]\nclass = True", fillcolor="#48a5e7"] ;
52 -> 64 ;
65 [label="discretization_grade <= 1.0\ngini = 0.219\nsamples = 8\nvalue = [1, 7]\nclass = True", fillcolor="#55abe9"] ;
64 -> 65 ;
66 [label="gini = 0.278\nsamples = 6\nvalue = [1, 5]\nclass = True", fillcolor="#61b1ea"] ;
65 -> 66 ;
67 [label="gini = 0.0\nsamples = 2\nvalue = [0, 2]\nclass = True", fillcolor="#399de5"] ;
65 -> 67 ;
68 [label="gini = 0.0\nsamples = 6\nvalue = [0, 6]\nclass = True", fillcolor="#399de5"] ;
64 -> 68 ;
69 [label="discretization_condition <= 1.5\ngini = 0.499\nsamples = 31\nvalue = [16, 15]\nclass = False", fillcolor="#fdf7f3"] ;
51 -> 69 ;
70 [label="discretization_sqft_living15 <= 1.5\ngini = 0.495\nsamples = 29\nvalue = [16, 13]\nclass = False", fillcolor="#fae7da"] ;
69 -> 70 ;
71 [label="gini = 0.0\nsamples = 2\nvalue = [2, 0]\nclass = False", fillcolor="#e58139"] ;
70 -> 71 ;
72 [label="discretization_yr_built <= 1.0\ngini = 0.499\nsamples = 27\nvalue = [14, 13]\nclass = False", fillcolor="#fdf6f1"] ;
70 -> 72 ;
73 [label="discretization_sqft_above <= 0.5\ngini = 0.495\nsamples = 20\nvalue = [9, 11]\nclass = True", fillcolor="#dbedfa"] ;
72 -> 73 ;
74 [label="discretization_sqft_basement <= 0.5\ngini = 0.498\nsamples = 15\nvalue = [8, 7]\nclass = False", fillcolor="#fcefe6"] ;
73 -> 74 ;
75 [label="discretization_bedrooms <= 0.5\ngini = 0.486\nsamples = 12\nvalue = [5, 7]\nclass = True", fillcolor="#c6e3f8"] ;
74 -> 75 ;
76 [label="discretization_grade <= 1.0\ngini = 0.375\nsamples = 4\nvalue = [3, 1]\nclass = False", fillcolor="#eeab7b"] ;
75 -> 76 ;
77 [label="gini = 0.0\nsamples = 1\nvalue = [1, 0]\nclass = False", fillcolor="#e58139"] ;
76 -> 77 ;
78 [label="gini = 0.444\nsamples = 3\nvalue = [2, 1]\nclass = False", fillcolor="#f2c09c"] ;
76 -> 78 ;
79 [label="discretization_bedrooms <= 1.5\ngini = 0.375\nsamples = 8\nvalue = [2, 6]\nclass = True", fillcolor="#7bbeee"] ;
75 -> 79 ;
80 [label="discretization_grade <= 1.0\ngini = 0.245\nsamples = 7\nvalue = [1, 6]\nclass = True", fillcolor="#5aade9"] ;
79 -> 80 ;
81 [label="gini = 0.0\nsamples = 5\nvalue = [0, 5]\nclass = True", fillcolor="#399de5"] ;
80 -> 81 ;
82 [label="gini = 0.5\nsamples = 2\nvalue = [1, 1]\nclass = False", fillcolor="#ffffff"] ;
80 -> 82 ;
83 [label="gini = 0.0\nsamples = 1\nvalue = [1, 0]\nclass = False", fillcolor="#e58139"] ;
79 -> 83 ;
84 [label="gini = 0.0\nsamples = 3\nvalue = [3, 0]\nclass = False", fillcolor="#e58139"] ;
74 -> 84 ;
85 [label="discretization_bedrooms <= 0.5\ngini = 0.32\nsamples = 5\nvalue = [1, 4]\nclass = True", fillcolor="#6ab6ec"] ;
73 -> 85 ;
86 [label="gini = 0.0\nsamples = 3\nvalue = [0, 3]\nclass = True", fillcolor="#399de5"] ;
85 -> 86 ;
87 [label="gini = 0.5\nsamples = 2\nvalue = [1, 1]\nclass = False", fillcolor="#ffffff"] ;
85 -> 87 ;
88 [label="discretization_bedrooms <= 0.5\ngini = 0.408\nsamples = 7\nvalue = [5, 2]\nclass = False", fillcolor="#efb388"] ;
72 -> 88 ;
89 [label="gini = 0.0\nsamples = 3\nvalue = [3, 0]\nclass = False", fillcolor="#e58139"] ;
88 -> 89 ;
90 [label="discretization_grade <= 1.0\ngini = 0.5\nsamples = 4\nvalue = [2, 2]\nclass = False", fillcolor="#ffffff"] ;
88 -> 90 ;
91 [label="gini = 0.0\nsamples = 1\nvalue = [1, 0]\nclass = False", fillcolor="#e58139"] ;
90 -> 91 ;
92 [label="discretization_bedrooms <= 1.5\ngini = 0.444\nsamples = 3\nvalue = [1, 2]\nclass = True", fillcolor="#9ccef2"] ;
90 -> 92 ;
93 [label="gini = 0.0\nsamples = 1\nvalue = [0, 1]\nclass = True", fillcolor="#399de5"] ;
92 -> 93 ;
94 [label="gini = 0.5\nsamples = 2\nvalue = [1, 1]\nclass = False", fillcolor="#ffffff"] ;
92 -> 94 ;
95 [label="gini = 0.0\nsamples = 2\nvalue = [0, 2]\nclass = True", fillcolor="#399de5"] ;
69 -> 95 ;
96 [label="gini = 0.0\nsamples = 3\nvalue = [3, 0]\nclass = False", fillcolor="#e58139"] ;
50 -> 96 ;
97 [label="discretization_condition <= 0.5\ngini = 0.236\nsamples = 22\nvalue = [3, 19]\nclass = True", fillcolor="#58ace9"] ;
3 -> 97 ;
98 [label="discretization_sqft_living15 <= 0.5\ngini = 0.18\nsamples = 20\nvalue = [2, 18]\nclass = True", fillcolor="#4fa8e8"] ;
97 -> 98 ;
99 [label="discretization_bedrooms <= 0.5\ngini = 0.117\nsamples = 16\nvalue = [1, 15]\nclass = True", fillcolor="#46a4e7"] ;
98 -> 99 ;
100 [label="gini = 0.0\nsamples = 7\nvalue = [0, 7]\nclass = True", fillcolor="#399de5"] ;
99 -> 100 ;
101 [label="discretization_yr_built <= 0.5\ngini = 0.198\nsamples = 9\nvalue = [1, 8]\nclass = True", fillcolor="#52a9e8"] ;
99 -> 101 ;
102 [label="gini = 0.0\nsamples = 2\nvalue = [0, 2]\nclass = True", fillcolor="#399de5"] ;
101 -> 102 ;
103 [label="discretization_sqft_above <= 0.5\ngini = 0.245\nsamples = 7\nvalue = [1, 6]\nclass = True", fillcolor="#5aade9"] ;
101 -> 103 ;
104 [label="gini = 0.0\nsamples = 1\nvalue = [0, 1]\nclass = True", fillcolor="#399de5"] ;
103 -> 104 ;
105 [label="discretization_view <= 0.5\ngini = 0.278\nsamples = 6\nvalue = [1, 5]\nclass = True", fillcolor="#61b1ea"] ;
103 -> 105 ;
106 [label="gini = 0.32\nsamples = 5\nvalue = [1, 4]\nclass = True", fillcolor="#6ab6ec"] ;
105 -> 106 ;
107 [label="gini = 0.0\nsamples = 1\nvalue = [0, 1]\nclass = True", fillcolor="#399de5"] ;
105 -> 107 ;
108 [label="discretization_bedrooms <= 0.5\ngini = 0.375\nsamples = 4\nvalue = [1, 3]\nclass = True", fillcolor="#7bbeee"] ;
98 -> 108 ;
109 [label="discretization_yr_built <= 0.5\ngini = 0.5\nsamples = 2\nvalue = [1, 1]\nclass = False", fillcolor="#ffffff"] ;
108 -> 109 ;
110 [label="gini = 0.0\nsamples = 1\nvalue = [0, 1]\nclass = True", fillcolor="#399de5"] ;
109 -> 110 ;
111 [label="gini = 0.0\nsamples = 1\nvalue = [1, 0]\nclass = False", fillcolor="#e58139"] ;
109 -> 111 ;
112 [label="gini = 0.0\nsamples = 2\nvalue = [0, 2]\nclass = True", fillcolor="#399de5"] ;
108 -> 112 ;
113 [label="discretization_sqft_living15 <= 0.5\ngini = 0.5\nsamples = 2\nvalue = [1, 1]\nclass = False", fillcolor="#ffffff"] ;
97 -> 113 ;
114 [label="gini = 0.0\nsamples = 1\nvalue = [1, 0]\nclass = False", fillcolor="#e58139"] ;
113 -> 114 ;
115 [label="gini = 0.0\nsamples = 1\nvalue = [0, 1]\nclass = True", fillcolor="#399de5"] ;
113 -> 115 ;
116 [label="discretization_floors <= 0.5\ngini = 0.398\nsamples = 142\nvalue = [39, 103]\nclass = True", fillcolor="#84c2ef"] ;
2 -> 116 ;
117 [label="discretization_bathrooms <= 1.5\ngini = 0.455\nsamples = 20\nvalue = [13, 7]\nclass = False", fillcolor="#f3c5a4"] ;
116 -> 117 ;
118 [label="discretization_sqft_living15 <= 0.5\ngini = 0.401\nsamples = 18\nvalue = [13, 5]\nclass = False", fillcolor="#efb185"] ;
117 -> 118 ;
119 [label="discretization_grade <= 1.0\ngini = 0.198\nsamples = 9\nvalue = [8, 1]\nclass = False", fillcolor="#e89152"] ;
118 -> 119 ;
120 [label="discretization_sqft_basement <= 0.5\ngini = 0.444\nsamples = 3\nvalue = [2, 1]\nclass = False", fillcolor="#f2c09c"] ;
119 -> 120 ;
121 [label="gini = 0.0\nsamples = 1\nvalue = [1, 0]\nclass = False", fillcolor="#e58139"] ;
120 -> 121 ;
122 [label="gini = 0.5\nsamples = 2\nvalue = [1, 1]\nclass = False", fillcolor="#ffffff"] ;
120 -> 122 ;
123 [label="gini = 0.0\nsamples = 6\nvalue = [6, 0]\nclass = False", fillcolor="#e58139"] ;
119 -> 123 ;
124 [label="discretization_yr_built <= 1.5\ngini = 0.494\nsamples = 9\nvalue = [5, 4]\nclass = False", fillcolor="#fae6d7"] ;
118 -> 124 ;
125 [label="discretization_yr_built <= 0.5\ngini = 0.469\nsamples = 8\nvalue = [5, 3]\nclass = False", fillcolor="#f5cdb0"] ;
124 -> 125 ;
126 [label="discretization_condition <= 0.5\ngini = 0.49\nsamples = 7\nvalue = [4, 3]\nclass = False", fillcolor="#f8e0ce"] ;
125 -> 126 ;
127 [label="gini = 0.444\nsamples = 3\nvalue = [2, 1]\nclass = False", fillcolor="#f2c09c"] ;
126 -> 127 ;
128 [label="discretization_grade <= 1.0\ngini = 0.5\nsamples = 4\nvalue = [2, 2]\nclass = False", fillcolor="#ffffff"] ;
126 -> 128 ;
129 [label="gini = 0.444\nsamples = 3\nvalue = [2, 1]\nclass = False", fillcolor="#f2c09c"] ;
128 -> 129 ;
130 [label="gini = 0.0\nsamples = 1\nvalue = [0, 1]\nclass = True", fillcolor="#399de5"] ;
128 -> 130 ;
131 [label="gini = 0.0\nsamples = 1\nvalue = [1, 0]\nclass = False", fillcolor="#e58139"] ;
125 -> 131 ;
132 [label="gini = 0.0\nsamples = 1\nvalue = [0, 1]\nclass = True", fillcolor="#399de5"] ;
124 -> 132 ;
133 [label="gini = 0.0\nsamples = 2\nvalue = [0, 2]\nclass = True", fillcolor="#399de5"] ;
117 -> 133 ;
134 [label="discretization_bedrooms <= 0.5\ngini = 0.335\nsamples = 122\nvalue = [26, 96]\nclass = True", fillcolor="#6fb8ec"] ;
116 -> 134 ;
135 [label="discretization_sqft_basement <= 0.5\ngini = 0.488\nsamples = 26\nvalue = [11, 15]\nclass = True", fillcolor="#cae5f8"] ;
134 -> 135 ;
136 [label="discretization_sqft_lot <= 0.5\ngini = 0.494\nsamples = 18\nvalue = [10, 8]\nclass = False", fillcolor="#fae6d7"] ;
135 -> 136 ;
137 [label="discretization_bathrooms <= 1.5\ngini = 0.484\nsamples = 17\nvalue = [10, 7]\nclass = False", fillcolor="#f7d9c4"] ;
136 -> 137 ;
138 [label="discretization_view <= 0.5\ngini = 0.498\nsamples = 15\nvalue = [8, 7]\nclass = False", fillcolor="#fcefe6"] ;
137 -> 138 ;
139 [label="discretization_grade <= 1.0\ngini = 0.49\nsamples = 14\nvalue = [8, 6]\nclass = False", fillcolor="#f8e0ce"] ;
138 -> 139 ;
140 [label="gini = 0.444\nsamples = 3\nvalue = [1, 2]\nclass = True", fillcolor="#9ccef2"] ;
139 -> 140 ;
141 [label="discretization_sqft_living15 <= 1.5\ngini = 0.463\nsamples = 11\nvalue = [7, 4]\nclass = False", fillcolor="#f4c9aa"] ;
139 -> 141 ;
142 [label="gini = 0.0\nsamples = 2\nvalue = [2, 0]\nclass = False", fillcolor="#e58139"] ;
141 -> 142 ;
143 [label="discretization_condition <= 0.5\ngini = 0.494\nsamples = 9\nvalue = [5, 4]\nclass = False", fillcolor="#fae6d7"] ;
141 -> 143 ;
144 [label="discretization_yr_built <= 1.0\ngini = 0.375\nsamples = 4\nvalue = [3, 1]\nclass = False", fillcolor="#eeab7b"] ;
143 -> 144 ;
145 [label="gini = 0.0\nsamples = 1\nvalue = [1, 0]\nclass = False", fillcolor="#e58139"] ;
144 -> 145 ;
146 [label="gini = 0.444\nsamples = 3\nvalue = [2, 1]\nclass = False", fillcolor="#f2c09c"] ;
144 -> 146 ;
147 [label="discretization_yr_built <= 1.0\ngini = 0.48\nsamples = 5\nvalue = [2, 3]\nclass = True", fillcolor="#bddef6"] ;
143 -> 147 ;
148 [label="gini = 0.5\nsamples = 2\nvalue = [1, 1]\nclass = False", fillcolor="#ffffff"] ;
147 -> 148 ;
149 [label="gini = 0.444\nsamples = 3\nvalue = [1, 2]\nclass = True", fillcolor="#9ccef2"] ;
147 -> 149 ;
150 [label="gini = 0.0\nsamples = 1\nvalue = [0, 1]\nclass = True", fillcolor="#399de5"] ;
138 -> 150 ;
151 [label="gini = 0.0\nsamples = 2\nvalue = [2, 0]\nclass = False", fillcolor="#e58139"] ;
137 -> 151 ;
152 [label="gini = 0.0\nsamples = 1\nvalue = [0, 1]\nclass = True", fillcolor="#399de5"] ;
136 -> 152 ;
153 [label="discretization_condition <= 0.5\ngini = 0.219\nsamples = 8\nvalue = [1, 7]\nclass = True", fillcolor="#55abe9"] ;
135 -> 153 ;
154 [label="discretization_yr_built <= 1.0\ngini = 0.5\nsamples = 2\nvalue = [1, 1]\nclass = False", fillcolor="#ffffff"] ;
153 -> 154 ;
155 [label="gini = 0.0\nsamples = 1\nvalue = [1, 0]\nclass = False", fillcolor="#e58139"] ;
154 -> 155 ;
156 [label="gini = 0.0\nsamples = 1\nvalue = [0, 1]\nclass = True", fillcolor="#399de5"] ;
154 -> 156 ;
157 [label="gini = 0.0\nsamples = 6\nvalue = [0, 6]\nclass = True", fillcolor="#399de5"] ;
153 -> 157 ;
158 [label="discretization_sqft_above <= 0.5\ngini = 0.264\nsamples = 96\nvalue = [15, 81]\nclass = True", fillcolor="#5eafea"] ;
134 -> 158 ;
159 [label="discretization_floors <= 1.5\ngini = 0.229\nsamples = 91\nvalue = [12, 79]\nclass = True", fillcolor="#57ace9"] ;
158 -> 159 ;
160 [label="discretization_grade <= 1.0\ngini = 0.215\nsamples = 90\nvalue = [11, 79]\nclass = True", fillcolor="#55abe9"] ;
159 -> 160 ;
161 [label="discretization_yr_built <= 1.0\ngini = 0.308\nsamples = 21\nvalue = [4, 17]\nclass = True", fillcolor="#68b4eb"] ;
160 -> 161 ;
162 [label="discretization_sqft_lot <= 0.5\ngini = 0.408\nsamples = 14\nvalue = [4, 10]\nclass = True", fillcolor="#88c4ef"] ;
161 -> 162 ;
163 [label="discretization_sqft_basement <= 0.5\ngini = 0.426\nsamples = 13\nvalue = [4, 9]\nclass = True", fillcolor="#91c9f1"] ;
162 -> 163 ;
164 [label="discretization_sqft_living15 <= 1.0\ngini = 0.469\nsamples = 8\nvalue = [3, 5]\nclass = True", fillcolor="#b0d8f5"] ;
163 -> 164 ;
165 [label="discretization_condition <= 0.5\ngini = 0.375\nsamples = 4\nvalue = [1, 3]\nclass = True", fillcolor="#7bbeee"] ;
164 -> 165 ;
166 [label="gini = 0.0\nsamples = 3\nvalue = [0, 3]\nclass = True", fillcolor="#399de5"] ;
165 -> 166 ;
167 [label="gini = 0.0\nsamples = 1\nvalue = [1, 0]\nclass = False", fillcolor="#e58139"] ;
165 -> 167 ;
168 [label="discretization_condition <= 0.5\ngini = 0.5\nsamples = 4\nvalue = [2, 2]\nclass = False", fillcolor="#ffffff"] ;
164 -> 168 ;
169 [label="gini = 0.444\nsamples = 3\nvalue = [2, 1]\nclass = False", fillcolor="#f2c09c"] ;
168 -> 169 ;
170 [label="gini = 0.0\nsamples = 1\nvalue = [0, 1]\nclass = True", fillcolor="#399de5"] ;
168 -> 170 ;
171 [label="discretization_condition <= 0.5\ngini = 0.32\nsamples = 5\nvalue = [1, 4]\nclass = True", fillcolor="#6ab6ec"] ;
163 -> 171 ;
172 [label="gini = 0.375\nsamples = 4\nvalue = [1, 3]\nclass = True", fillcolor="#7bbeee"] ;
171 -> 172 ;
173 [label="gini = 0.0\nsamples = 1\nvalue = [0, 1]\nclass = True", fillcolor="#399de5"] ;
171 -> 173 ;
174 [label="gini = 0.0\nsamples = 1\nvalue = [0, 1]\nclass = True", fillcolor="#399de5"] ;
162 -> 174 ;
175 [label="gini = 0.0\nsamples = 7\nvalue = [0, 7]\nclass = True", fillcolor="#399de5"] ;
161 -> 175 ;
176 [label="discretization_yr_built <= 1.0\ngini = 0.182\nsamples = 69\nvalue = [7, 62]\nclass = True", fillcolor="#4fa8e8"] ;
160 -> 176 ;
177 [label="discretization_sqft_basement <= 0.5\ngini = 0.059\nsamples = 33\nvalue = [1, 32]\nclass = True", fillcolor="#3fa0e6"] ;
176 -> 177 ;
178 [label="discretization_condition <= 0.5\ngini = 0.142\nsamples = 13\nvalue = [1, 12]\nclass = True", fillcolor="#49a5e7"] ;
177 -> 178 ;
179 [label="discretization_sqft_living15 <= 1.0\ngini = 0.219\nsamples = 8\nvalue = [1, 7]\nclass = True", fillcolor="#55abe9"] ;
178 -> 179 ;
180 [label="gini = 0.0\nsamples = 1\nvalue = [0, 1]\nclass = True", fillcolor="#399de5"] ;
179 -> 180 ;
181 [label="discretization_view <= 0.5\ngini = 0.245\nsamples = 7\nvalue = [1, 6]\nclass = True", fillcolor="#5aade9"] ;
179 -> 181 ;
182 [label="gini = 0.278\nsamples = 6\nvalue = [1, 5]\nclass = True", fillcolor="#61b1ea"] ;
181 -> 182 ;
183 [label="gini = 0.0\nsamples = 1\nvalue = [0, 1]\nclass = True", fillcolor="#399de5"] ;
181 -> 183 ;
184 [label="gini = 0.0\nsamples = 5\nvalue = [0, 5]\nclass = True", fillcolor="#399de5"] ;
178 -> 184 ;
185 [label="gini = 0.0\nsamples = 20\nvalue = [0, 20]\nclass = True", fillcolor="#399de5"] ;
177 -> 185 ;
186 [label="discretization_sqft_living15 <= 1.0\ngini = 0.278\nsamples = 36\nvalue = [6, 30]\nclass = True", fillcolor="#61b1ea"] ;
176 -> 186 ;
187 [label="gini = 0.0\nsamples = 4\nvalue = [0, 4]\nclass = True", fillcolor="#399de5"] ;
186 -> 187 ;
188 [label="discretization_sqft_basement <= 0.5\ngini = 0.305\nsamples = 32\nvalue = [6, 26]\nclass = True", fillcolor="#67b4eb"] ;
186 -> 188 ;
189 [label="gini = 0.0\nsamples = 3\nvalue = [0, 3]\nclass = True", fillcolor="#399de5"] ;
188 -> 189 ;
190 [label="discretization_condition <= 0.5\ngini = 0.328\nsamples = 29\nvalue = [6, 23]\nclass = True", fillcolor="#6db7ec"] ;
188 -> 190 ;
191 [label="discretization_yr_renovated <= 0.5\ngini = 0.245\nsamples = 14\nvalue = [2, 12]\nclass = True", fillcolor="#5aade9"] ;
190 -> 191 ;
192 [label="discretization_bathrooms <= 2.0\ngini = 0.278\nsamples = 12\nvalue = [2, 10]\nclass = True", fillcolor="#61b1ea"] ;
191 -> 192 ;
193 [label="gini = 0.278\nsamples = 6\nvalue = [1, 5]\nclass = True", fillcolor="#61b1ea"] ;
192 -> 193 ;
194 [label="gini = 0.278\nsamples = 6\nvalue = [1, 5]\nclass = True", fillcolor="#61b1ea"] ;
192 -> 194 ;
195 [label="gini = 0.0\nsamples = 2\nvalue = [0, 2]\nclass = True", fillcolor="#399de5"] ;
191 -> 195 ;
196 [label="discretization_bathrooms <= 2.0\ngini = 0.391\nsamples = 15\nvalue = [4, 11]\nclass = True", fillcolor="#81c1ee"] ;
190 -> 196 ;
197 [label="discretization_condition <= 1.5\ngini = 0.355\nsamples = 13\nvalue = [3, 10]\nclass = True", fillcolor="#74baed"] ;
196 -> 197 ;
198 [label="gini = 0.375\nsamples = 12\nvalue = [3, 9]\nclass = True", fillcolor="#7bbeee"] ;
197 -> 198 ;
199 [label="gini = 0.0\nsamples = 1\nvalue = [0, 1]\nclass = True", fillcolor="#399de5"] ;
197 -> 199 ;
200 [label="gini = 0.5\nsamples = 2\nvalue = [1, 1]\nclass = False", fillcolor="#ffffff"] ;
196 -> 200 ;
201 [label="gini = 0.0\nsamples = 1\nvalue = [1, 0]\nclass = False", fillcolor="#e58139"] ;
159 -> 201 ;
202 [label="discretization_yr_built <= 1.0\ngini = 0.48\nsamples = 5\nvalue = [3, 2]\nclass = False", fillcolor="#f6d5bd"] ;
158 -> 202 ;
203 [label="discretization_sqft_living15 <= 1.0\ngini = 0.444\nsamples = 3\nvalue = [1, 2]\nclass = True", fillcolor="#9ccef2"] ;
202 -> 203 ;
204 [label="gini = 0.0\nsamples = 2\nvalue = [0, 2]\nclass = True", fillcolor="#399de5"] ;
203 -> 204 ;
205 [label="gini = 0.0\nsamples = 1\nvalue = [1, 0]\nclass = False", fillcolor="#e58139"] ;
203 -> 205 ;
206 [label="gini = 0.0\nsamples = 2\nvalue = [2, 0]\nclass = False", fillcolor="#e58139"] ;
202 -> 206 ;
207 [label="discretization_view <= 0.5\ngini = 0.198\nsamples = 18\nvalue = [16, 2]\nclass = False", fillcolor="#e89152"] ;
1 -> 207 ;
208 [label="discretization_bedrooms <= 0.5\ngini = 0.111\nsamples = 17\nvalue = [16, 1]\nclass = False", fillcolor="#e78945"] ;
207 -> 208 ;
209 [label="discretization_bathrooms <= 0.5\ngini = 0.278\nsamples = 6\nvalue = [5, 1]\nclass = False", fillcolor="#ea9a61"] ;
208 -> 209 ;
210 [label="discretization_sqft_living15 <= 1.0\ngini = 0.444\nsamples = 3\nvalue = [2, 1]\nclass = False", fillcolor="#f2c09c"] ;
209 -> 210 ;
211 [label="gini = 0.0\nsamples = 1\nvalue = [1, 0]\nclass = False", fillcolor="#e58139"] ;
210 -> 211 ;
212 [label="discretization_condition <= 0.5\ngini = 0.5\nsamples = 2\nvalue = [1, 1]\nclass = False", fillcolor="#ffffff"] ;
210 -> 212 ;
213 [label="gini = 0.0\nsamples = 1\nvalue = [0, 1]\nclass = True", fillcolor="#399de5"] ;
212 -> 213 ;
214 [label="gini = 0.0\nsamples = 1\nvalue = [1, 0]\nclass = False", fillcolor="#e58139"] ;
212 -> 214 ;
215 [label="gini = 0.0\nsamples = 3\nvalue = [3, 0]\nclass = False", fillcolor="#e58139"] ;
209 -> 215 ;
216 [label="gini = 0.0\nsamples = 11\nvalue = [11, 0]\nclass = False", fillcolor="#e58139"] ;
208 -> 216 ;
217 [label="gini = 0.0\nsamples = 1\nvalue = [0, 1]\nclass = True", fillcolor="#399de5"] ;
207 -> 217 ;
218 [label="discretization_sqft_basement <= 1.5\ngini = 0.36\nsamples = 251\nvalue = [192, 59]\nclass = False", fillcolor="#eda876"] ;
0 -> 218 [labeldistance=2.5, labelangle=-45, headlabel="False"] ;
219 [label="discretization_sqft_above <= 1.5\ngini = 0.398\nsamples = 204\nvalue = [148, 56]\nclass = False", fillcolor="#efb184"] ;
218 -> 219 ;
220 [label="discretization_bathrooms <= 0.5\ngini = 0.494\nsamples = 85\nvalue = [47, 38]\nclass = False", fillcolor="#fae7d9"] ;
219 -> 220 ;
221 [label="discretization_sqft_living15 <= 1.5\ngini = 0.494\nsamples = 65\nvalue = [29, 36]\nclass = True", fillcolor="#d9ecfa"] ;
220 -> 221 ;
222 [label="discretization_grade <= 2.0\ngini = 0.487\nsamples = 62\nvalue = [26, 36]\nclass = True", fillcolor="#c8e4f8"] ;
221 -> 222 ;
223 [label="discretization_sqft_lot15 <= 0.5\ngini = 0.436\nsamples = 28\nvalue = [9, 19]\nclass = True", fillcolor="#97cbf1"] ;
222 -> 223 ;
224 [label="discretization_sqft_living15 <= 0.5\ngini = 0.393\nsamples = 26\nvalue = [7, 19]\nclass = True", fillcolor="#82c1ef"] ;
223 -> 224 ;
225 [label="discretization_sqft_lot <= 0.5\ngini = 0.48\nsamples = 15\nvalue = [6, 9]\nclass = True", fillcolor="#bddef6"] ;
224 -> 225 ;
226 [label="discretization_sqft_above <= 0.5\ngini = 0.49\nsamples = 14\nvalue = [6, 8]\nclass = True", fillcolor="#cee6f8"] ;
225 -> 226 ;
227 [label="gini = 0.0\nsamples = 1\nvalue = [0, 1]\nclass = True", fillcolor="#399de5"] ;
226 -> 227 ;
228 [label="discretization_grade <= 0.5\ngini = 0.497\nsamples = 13\nvalue = [6, 7]\nclass = True", fillcolor="#e3f1fb"] ;
226 -> 228 ;
229 [label="discretization_condition <= 1.5\ngini = 0.5\nsamples = 12\nvalue = [6, 6]\nclass = False", fillcolor="#ffffff"] ;
228 -> 229 ;
230 [label="discretization_condition <= 0.5\ngini = 0.496\nsamples = 11\nvalue = [6, 5]\nclass = False", fillcolor="#fbeade"] ;
229 -> 230 ;
231 [label="discretization_bedrooms <= 0.5\ngini = 0.5\nsamples = 8\nvalue = [4, 4]\nclass = False", fillcolor="#ffffff"] ;
230 -> 231 ;
232 [label="discretization_yr_built <= 0.5\ngini = 0.5\nsamples = 4\nvalue = [2, 2]\nclass = False", fillcolor="#ffffff"] ;
231 -> 232 ;
233 [label="gini = 0.0\nsamples = 1\nvalue = [0, 1]\nclass = True", fillcolor="#399de5"] ;
232 -> 233 ;
234 [label="gini = 0.444\nsamples = 3\nvalue = [2, 1]\nclass = False", fillcolor="#f2c09c"] ;
232 -> 234 ;
235 [label="discretization_yr_built <= 0.5\ngini = 0.5\nsamples = 4\nvalue = [2, 2]\nclass = False", fillcolor="#ffffff"] ;
231 -> 235 ;
236 [label="gini = 0.0\nsamples = 1\nvalue = [1, 0]\nclass = False", fillcolor="#e58139"] ;
235 -> 236 ;
237 [label="gini = 0.444\nsamples = 3\nvalue = [1, 2]\nclass = True", fillcolor="#9ccef2"] ;
235 -> 237 ;
238 [label="discretization_floors <= 0.5\ngini = 0.444\nsamples = 3\nvalue = [2, 1]\nclass = False", fillcolor="#f2c09c"] ;
230 -> 238 ;
239 [label="gini = 0.0\nsamples = 1\nvalue = [1, 0]\nclass = False", fillcolor="#e58139"] ;
238 -> 239 ;
240 [label="gini = 0.5\nsamples = 2\nvalue = [1, 1]\nclass = False", fillcolor="#ffffff"] ;
238 -> 240 ;
241 [label="gini = 0.0\nsamples = 1\nvalue = [0, 1]\nclass = True", fillcolor="#399de5"] ;
229 -> 241 ;
242 [label="gini = 0.0\nsamples = 1\nvalue = [0, 1]\nclass = True", fillcolor="#399de5"] ;
228 -> 242 ;
243 [label="gini = 0.0\nsamples = 1\nvalue = [0, 1]\nclass = True", fillcolor="#399de5"] ;
225 -> 243 ;
244 [label="discretization_bedrooms <= 0.5\ngini = 0.165\nsamples = 11\nvalue = [1, 10]\nclass = True", fillcolor="#4da7e8"] ;
224 -> 244 ;
245 [label="gini = 0.0\nsamples = 8\nvalue = [0, 8]\nclass = True", fillcolor="#399de5"] ;
244 -> 245 ;
246 [label="discretization_bedrooms <= 1.5\ngini = 0.444\nsamples = 3\nvalue = [1, 2]\nclass = True", fillcolor="#9ccef2"] ;
244 -> 246 ;
247 [label="gini = 0.0\nsamples = 1\nvalue = [1, 0]\nclass = False", fillcolor="#e58139"] ;
246 -> 247 ;
248 [label="gini = 0.0\nsamples = 2\nvalue = [0, 2]\nclass = True", fillcolor="#399de5"] ;
246 -> 248 ;
249 [label="gini = 0.0\nsamples = 2\nvalue = [2, 0]\nclass = False", fillcolor="#e58139"] ;
223 -> 249 ;
250 [label="discretization_condition <= 0.5\ngini = 0.5\nsamples = 34\nvalue = [17, 17]\nclass = False", fillcolor="#ffffff"] ;
222 -> 250 ;
251 [label="discretization_bedrooms <= 0.5\ngini = 0.498\nsamples = 32\nvalue = [17, 15]\nclass = False", fillcolor="#fcf0e8"] ;
250 -> 251 ;
252 [label="discretization_yr_built <= 0.5\ngini = 0.426\nsamples = 13\nvalue = [9, 4]\nclass = False", fillcolor="#f1b991"] ;
251 -> 252 ;
253 [label="discretization_sqft_lot <= 0.5\ngini = 0.48\nsamples = 5\nvalue = [2, 3]\nclass = True", fillcolor="#bddef6"] ;
252 -> 253 ;
254 [label="discretization_sqft_living15 <= 0.5\ngini = 0.375\nsamples = 4\nvalue = [1, 3]\nclass = True", fillcolor="#7bbeee"] ;
253 -> 254 ;
255 [label="gini = 0.444\nsamples = 3\nvalue = [1, 2]\nclass = True", fillcolor="#9ccef2"] ;
254 -> 255 ;
256 [label="gini = 0.0\nsamples = 1\nvalue = [0, 1]\nclass = True", fillcolor="#399de5"] ;
254 -> 256 ;
257 [label="gini = 0.0\nsamples = 1\nvalue = [1, 0]\nclass = False", fillcolor="#e58139"] ;
253 -> 257 ;
258 [label="discretization_sqft_living15 <= 0.5\ngini = 0.219\nsamples = 8\nvalue = [7, 1]\nclass = False", fillcolor="#e99355"] ;
252 -> 258 ;
259 [label="gini = 0.0\nsamples = 3\nvalue = [3, 0]\nclass = False", fillcolor="#e58139"] ;
258 -> 259 ;
260 [label="discretization_sqft_basement <= 0.5\ngini = 0.32\nsamples = 5\nvalue = [4, 1]\nclass = False", fillcolor="#eca06a"] ;
258 -> 260 ;
261 [label="gini = 0.0\nsamples = 1\nvalue = [1, 0]\nclass = False", fillcolor="#e58139"] ;
260 -> 261 ;
262 [label="gini = 0.375\nsamples = 4\nvalue = [3, 1]\nclass = False", fillcolor="#eeab7b"] ;
260 -> 262 ;
263 [label="discretization_yr_built <= 1.5\ngini = 0.488\nsamples = 19\nvalue = [8, 11]\nclass = True", fillcolor="#c9e4f8"] ;
251 -> 263 ;
264 [label="discretization_sqft_living15 <= 0.5\ngini = 0.494\nsamples = 18\nvalue = [8, 10]\nclass = True", fillcolor="#d7ebfa"] ;
263 -> 264 ;
265 [label="discretization_yr_built <= 0.5\ngini = 0.49\nsamples = 14\nvalue = [6, 8]\nclass = True", fillcolor="#cee6f8"] ;
264 -> 265 ;
266 [label="discretization_sqft_basement <= 0.5\ngini = 0.5\nsamples = 4\nvalue = [2, 2]\nclass = False", fillcolor="#ffffff"] ;
265 -> 266 ;
267 [label="gini = 0.0\nsamples = 1\nvalue = [1, 0]\nclass = False", fillcolor="#e58139"] ;
266 -> 267 ;
268 [label="gini = 0.444\nsamples = 3\nvalue = [1, 2]\nclass = True", fillcolor="#9ccef2"] ;
266 -> 268 ;
269 [label="discretization_sqft_basement <= 0.5\ngini = 0.48\nsamples = 10\nvalue = [4, 6]\nclass = True", fillcolor="#bddef6"] ;
265 -> 269 ;
270 [label="gini = 0.0\nsamples = 1\nvalue = [0, 1]\nclass = True", fillcolor="#399de5"] ;
269 -> 270 ;
271 [label="gini = 0.494\nsamples = 9\nvalue = [4, 5]\nclass = True", fillcolor="#d7ebfa"] ;
269 -> 271 ;
272 [label="discretization_yr_built <= 0.5\ngini = 0.5\nsamples = 4\nvalue = [2, 2]\nclass = False", fillcolor="#ffffff"] ;
264 -> 272 ;
273 [label="gini = 0.0\nsamples = 1\nvalue = [0, 1]\nclass = True", fillcolor="#399de5"] ;
272 -> 273 ;
274 [label="gini = 0.444\nsamples = 3\nvalue = [2, 1]\nclass = False", fillcolor="#f2c09c"] ;
272 -> 274 ;
275 [label="gini = 0.0\nsamples = 1\nvalue = [0, 1]\nclass = True", fillcolor="#399de5"] ;
263 -> 275 ;
276 [label="gini = 0.0\nsamples = 2\nvalue = [0, 2]\nclass = True", fillcolor="#399de5"] ;
250 -> 276 ;
277 [label="gini = 0.0\nsamples = 3\nvalue = [3, 0]\nclass = False", fillcolor="#e58139"] ;
221 -> 277 ;
278 [label="discretization_bedrooms <= 0.5\ngini = 0.18\nsamples = 20\nvalue = [18, 2]\nclass = False", fillcolor="#e88f4f"] ;
220 -> 278 ;
279 [label="gini = 0.0\nsamples = 9\nvalue = [9, 0]\nclass = False", fillcolor="#e58139"] ;
278 -> 279 ;
280 [label="discretization_bedrooms <= 1.5\ngini = 0.298\nsamples = 11\nvalue = [9, 2]\nclass = False", fillcolor="#eb9d65"] ;
278 -> 280 ;
281 [label="discretization_yr_built <= 1.5\ngini = 0.444\nsamples = 6\nvalue = [4, 2]\nclass = False", fillcolor="#f2c09c"] ;
280 -> 281 ;
282 [label="discretization_grade <= 2.0\ngini = 0.32\nsamples = 5\nvalue = [4, 1]\nclass = False", fillcolor="#eca06a"] ;
281 -> 282 ;
283 [label="discretization_yr_built <= 0.5\ngini = 0.444\nsamples = 3\nvalue = [2, 1]\nclass = False", fillcolor="#f2c09c"] ;
282 -> 283 ;
284 [label="gini = 0.0\nsamples = 1\nvalue = [0, 1]\nclass = True", fillcolor="#399de5"] ;
283 -> 284 ;
285 [label="gini = 0.0\nsamples = 2\nvalue = [2, 0]\nclass = False", fillcolor="#e58139"] ;
283 -> 285 ;
286 [label="gini = 0.0\nsamples = 2\nvalue = [2, 0]\nclass = False", fillcolor="#e58139"] ;
282 -> 286 ;
287 [label="gini = 0.0\nsamples = 1\nvalue = [0, 1]\nclass = True", fillcolor="#399de5"] ;
281 -> 287 ;
288 [label="gini = 0.0\nsamples = 5\nvalue = [5, 0]\nclass = False", fillcolor="#e58139"] ;
280 -> 288 ;
289 [label="discretization_view <= 0.5\ngini = 0.257\nsamples = 119\nvalue = [101, 18]\nclass = False", fillcolor="#ea975c"] ;
219 -> 289 ;
290 [label="discretization_grade <= 2.5\ngini = 0.236\nsamples = 117\nvalue = [101, 16]\nclass = False", fillcolor="#e99558"] ;
289 -> 290 ;
291 [label="discretization_grade <= 1.5\ngini = 0.324\nsamples = 59\nvalue = [47, 12]\nclass = False", fillcolor="#eca16c"] ;
290 -> 291 ;
292 [label="discretization_grade <= 0.5\ngini = 0.307\nsamples = 58\nvalue = [47, 11]\nclass = False", fillcolor="#eb9e67"] ;
291 -> 292 ;
293 [label="discretization_sqft_living15 <= 0.5\ngini = 0.153\nsamples = 24\nvalue = [22, 2]\nclass = False", fillcolor="#e78c4b"] ;
292 -> 293 ;
294 [label="gini = 0.0\nsamples = 10\nvalue = [10, 0]\nclass = False", fillcolor="#e58139"] ;
293 -> 294 ;
295 [label="discretization_bathrooms <= 1.0\ngini = 0.245\nsamples = 14\nvalue = [12, 2]\nclass = False", fillcolor="#e9965a"] ;
293 -> 295 ;
296 [label="discretization_bedrooms <= 0.5\ngini = 0.153\nsamples = 12\nvalue = [11, 1]\nclass = False", fillcolor="#e78c4b"] ;
295 -> 296 ;
297 [label="discretization_floors <= 1.0\ngini = 0.219\nsamples = 8\nvalue = [7, 1]\nclass = False", fillcolor="#e99355"] ;
296 -> 297 ;
298 [label="discretization_sqft_living15 <= 1.5\ngini = 0.278\nsamples = 6\nvalue = [5, 1]\nclass = False", fillcolor="#ea9a61"] ;
297 -> 298 ;
299 [label="gini = 0.32\nsamples = 5\nvalue = [4, 1]\nclass = False", fillcolor="#eca06a"] ;
298 -> 299 ;
300 [label="gini = 0.0\nsamples = 1\nvalue = [1, 0]\nclass = False", fillcolor="#e58139"] ;
298 -> 300 ;
301 [label="gini = 0.0\nsamples = 2\nvalue = [2, 0]\nclass = False", fillcolor="#e58139"] ;
297 -> 301 ;
302 [label="gini = 0.0\nsamples = 4\nvalue = [4, 0]\nclass = False", fillcolor="#e58139"] ;
296 -> 302 ;
303 [label="gini = 0.5\nsamples = 2\nvalue = [1, 1]\nclass = False", fillcolor="#ffffff"] ;
295 -> 303 ;
304 [label="discretization_sqft_living15 <= 0.5\ngini = 0.389\nsamples = 34\nvalue = [25, 9]\nclass = False", fillcolor="#eeae80"] ;
292 -> 304 ;
305 [label="gini = 0.0\nsamples = 2\nvalue = [0, 2]\nclass = True", fillcolor="#399de5"] ;
304 -> 305 ;
306 [label="discretization_sqft_lot <= 0.5\ngini = 0.342\nsamples = 32\nvalue = [25, 7]\nclass = False", fillcolor="#eca470"] ;
304 -> 306 ;
307 [label="discretization_bathrooms <= 1.0\ngini = 0.397\nsamples = 22\nvalue = [16, 6]\nclass = False", fillcolor="#efb083"] ;
306 -> 307 ;
308 [label="discretization_sqft_lot15 <= 0.5\ngini = 0.332\nsamples = 19\nvalue = [15, 4]\nclass = False", fillcolor="#eca36e"] ;
307 -> 308 ;
309 [label="discretization_sqft_living15 <= 1.5\ngini = 0.36\nsamples = 17\nvalue = [13, 4]\nclass = False", fillcolor="#eda876"] ;
308 -> 309 ;
310 [label="discretization_bedrooms <= 1.5\ngini = 0.375\nsamples = 16\nvalue = [12, 4]\nclass = False", fillcolor="#eeab7b"] ;
309 -> 310 ;
311 [label="discretization_bedrooms <= 0.5\ngini = 0.391\nsamples = 15\nvalue = [11, 4]\nclass = False", fillcolor="#eeaf81"] ;
310 -> 311 ;
312 [label="discretization_yr_built <= 0.5\ngini = 0.346\nsamples = 9\nvalue = [7, 2]\nclass = False", fillcolor="#eca572"] ;
311 -> 312 ;
313 [label="gini = 0.0\nsamples = 1\nvalue = [1, 0]\nclass = False", fillcolor="#e58139"] ;
312 -> 313 ;
314 [label="gini = 0.375\nsamples = 8\nvalue = [6, 2]\nclass = False", fillcolor="#eeab7b"] ;
312 -> 314 ;
315 [label="discretization_yr_built <= 0.5\ngini = 0.444\nsamples = 6\nvalue = [4, 2]\nclass = False", fillcolor="#f2c09c"] ;
311 -> 315 ;
316 [label="gini = 0.5\nsamples = 2\nvalue = [1, 1]\nclass = False", fillcolor="#ffffff"] ;
315 -> 316 ;
317 [label="gini = 0.375\nsamples = 4\nvalue = [3, 1]\nclass = False", fillcolor="#eeab7b"] ;
315 -> 317 ;
318 [label="gini = 0.0\nsamples = 1\nvalue = [1, 0]\nclass = False", fillcolor="#e58139"] ;
310 -> 318 ;
319 [label="gini = 0.0\nsamples = 1\nvalue = [1, 0]\nclass = False", fillcolor="#e58139"] ;
309 -> 319 ;
320 [label="gini = 0.0\nsamples = 2\nvalue = [2, 0]\nclass = False", fillcolor="#e58139"] ;
308 -> 320 ;
321 [label="discretization_floors <= 1.0\ngini = 0.444\nsamples = 3\nvalue = [1, 2]\nclass = True", fillcolor="#9ccef2"] ;
307 -> 321 ;
322 [label="gini = 0.0\nsamples = 2\nvalue = [0, 2]\nclass = True", fillcolor="#399de5"] ;
321 -> 322 ;
323 [label="gini = 0.0\nsamples = 1\nvalue = [1, 0]\nclass = False", fillcolor="#e58139"] ;
321 -> 323 ;
324 [label="discretization_floors <= 0.5\ngini = 0.18\nsamples = 10\nvalue = [9, 1]\nclass = False", fillcolor="#e88f4f"] ;
306 -> 324 ;
325 [label="gini = 0.0\nsamples = 9\nvalue = [9, 0]\nclass = False", fillcolor="#e58139"] ;
324 -> 325 ;
326 [label="gini = 0.0\nsamples = 1\nvalue = [0, 1]\nclass = True", fillcolor="#399de5"] ;
324 -> 326 ;
327 [label="gini = 0.0\nsamples = 1\nvalue = [0, 1]\nclass = True", fillcolor="#399de5"] ;
291 -> 327 ;
328 [label="discretization_yr_built <= 0.5\ngini = 0.128\nsamples = 58\nvalue = [54, 4]\nclass = False", fillcolor="#e78a48"] ;
290 -> 328 ;
329 [label="discretization_sqft_living15 <= 0.5\ngini = 0.32\nsamples = 5\nvalue = [4, 1]\nclass = False", fillcolor="#eca06a"] ;
328 -> 329 ;
330 [label="gini = 0.0\nsamples = 3\nvalue = [3, 0]\nclass = False", fillcolor="#e58139"] ;
329 -> 330 ;
331 [label="discretization_bedrooms <= 0.5\ngini = 0.5\nsamples = 2\nvalue = [1, 1]\nclass = False", fillcolor="#ffffff"] ;
329 -> 331 ;
332 [label="gini = 0.0\nsamples = 1\nvalue = [0, 1]\nclass = True", fillcolor="#399de5"] ;
331 -> 332 ;
333 [label="gini = 0.0\nsamples = 1\nvalue = [1, 0]\nclass = False", fillcolor="#e58139"] ;
331 -> 333 ;
334 [label="discretization_sqft_living15 <= 0.5\ngini = 0.107\nsamples = 53\nvalue = [50, 3]\nclass = False", fillcolor="#e78945"] ;
328 -> 334 ;
335 [label="gini = 0.375\nsamples = 4\nvalue = [3, 1]\nclass = False", fillcolor="#eeab7b"] ;
334 -> 335 ;
336 [label="discretization_bedrooms <= 0.5\ngini = 0.078\nsamples = 49\nvalue = [47, 2]\nclass = False", fillcolor="#e68641"] ;
334 -> 336 ;
337 [label="discretization_bathrooms <= 1.0\ngini = 0.095\nsamples = 40\nvalue = [38, 2]\nclass = False", fillcolor="#e68843"] ;
336 -> 337 ;
338 [label="discretization_floors <= 1.0\ngini = 0.114\nsamples = 33\nvalue = [31, 2]\nclass = False", fillcolor="#e78946"] ;
337 -> 338 ;
339 [label="discretization_sqft_living15 <= 1.5\ngini = 0.121\nsamples = 31\nvalue = [29, 2]\nclass = False", fillcolor="#e78a47"] ;
338 -> 339 ;
340 [label="discretization_sqft_basement <= 0.5\ngini = 0.128\nsamples = 29\nvalue = [27, 2]\nclass = False", fillcolor="#e78a48"] ;
339 -> 340 ;
341 [label="gini = 0.0\nsamples = 1\nvalue = [1, 0]\nclass = False", fillcolor="#e58139"] ;
340 -> 341 ;
342 [label="discretization_sqft_lot15 <= 0.5\ngini = 0.133\nsamples = 28\nvalue = [26, 2]\nclass = False", fillcolor="#e78b48"] ;
340 -> 342 ;
343 [label="gini = 0.137\nsamples = 27\nvalue = [25, 2]\nclass = False", fillcolor="#e78b49"] ;
342 -> 343 ;
344 [label="gini = 0.0\nsamples = 1\nvalue = [1, 0]\nclass = False", fillcolor="#e58139"] ;
342 -> 344 ;
345 [label="gini = 0.0\nsamples = 2\nvalue = [2, 0]\nclass = False", fillcolor="#e58139"] ;
339 -> 345 ;
346 [label="gini = 0.0\nsamples = 2\nvalue = [2, 0]\nclass = False", fillcolor="#e58139"] ;
338 -> 346 ;
347 [label="gini = 0.0\nsamples = 7\nvalue = [7, 0]\nclass = False", fillcolor="#e58139"] ;
337 -> 347 ;
348 [label="gini = 0.0\nsamples = 9\nvalue = [9, 0]\nclass = False", fillcolor="#e58139"] ;
336 -> 348 ;
349 [label="gini = 0.0\nsamples = 2\nvalue = [0, 2]\nclass = True", fillcolor="#399de5"] ;
289 -> 349 ;
350 [label="discretization_view <= 0.5\ngini = 0.12\nsamples = 47\nvalue = [44, 3]\nclass = False", fillcolor="#e78a46"] ;
218 -> 350 ;
351 [label="gini = 0.0\nsamples = 41\nvalue = [41, 0]\nclass = False", fillcolor="#e58139"] ;
350 -> 351 ;
352 [label="discretization_sqft_above <= 0.5\ngini = 0.5\nsamples = 6\nvalue = [3, 3]\nclass = False", fillcolor="#ffffff"] ;
350 -> 352 ;
353 [label="gini = 0.0\nsamples = 2\nvalue = [0, 2]\nclass = True", fillcolor="#399de5"] ;
352 -> 353 ;
354 [label="discretization_grade <= 0.5\ngini = 0.375\nsamples = 4\nvalue = [3, 1]\nclass = False", fillcolor="#eeab7b"] ;
352 -> 354 ;
355 [label="gini = 0.0\nsamples = 1\nvalue = [0, 1]\nclass = True", fillcolor="#399de5"] ;
354 -> 355 ;
356 [label="gini = 0.0\nsamples = 3\nvalue = [3, 0]\nclass = False", fillcolor="#e58139"] ;
354 -> 356 ;
}