digraph Tree {
node [shape=box, style="filled, rounded", color="black", fontname=helvetica] ;
edge [fontname=helvetica] ;
0 [label="disc_sqft_living <= 0.5\ngini = 0.661\nsamples = 554\nvalue = [193, 209, 152]\nclass = 1", fillcolor="#f6fef9"] ;
1 [label="disc_sqft_basement <= 0.5\ngini = 0.648\nsamples = 311\nvalue = [72, 107, 132]\nclass = 2", fillcolor="#f0e7fc"] ;
0 -> 1 [labeldistance=2.5, labelangle=45, headlabel="True"] ;
2 [label="disc_bedrooms <= 0.5\ngini = 0.643\nsamples = 98\nvalue = [35, 42, 21]\nclass = 1", fillcolor="#e9fcf1"] ;
1 -> 2 ;
3 [label="disc_bathrooms <= 0.5\ngini = 0.663\nsamples = 46\nvalue = [13, 16, 17]\nclass = 2", fillcolor="#fbf8fe"] ;
2 -> 3 ;
4 [label="disc_lat_long <= 0.5\ngini = 0.599\nsamples = 22\nvalue = [5, 12, 5]\nclass = 1", fillcolor="#adf4cb"] ;
3 -> 4 ;
5 [label="gini = 0.562\nsamples = 11\nvalue = [4, 6, 1]\nclass = 1", fillcolor="#c6f8db"] ;
4 -> 5 ;
6 [label="gini = 0.562\nsamples = 11\nvalue = [1, 6, 4]\nclass = 1", fillcolor="#c6f8db"] ;
4 -> 6 ;
7 [label="disc_grade <= 1.5\ngini = 0.611\nsamples = 24\nvalue = [8, 4, 12]\nclass = 2", fillcolor="#e0cef8"] ;
3 -> 7 ;
8 [label="gini = 0.379\nsamples = 13\nvalue = [1, 2, 10]\nclass = 2", fillcolor="#a36fec"] ;
7 -> 8 ;
9 [label="gini = 0.529\nsamples = 11\nvalue = [7, 2, 2]\nclass = 0", fillcolor="#f1b991"] ;
7 -> 9 ;
10 [label="disc_condition <= 0.5\ngini = 0.565\nsamples = 52\nvalue = [22, 26, 4]\nclass = 1", fillcolor="#e5fcee"] ;
2 -> 10 ;
11 [label="disc_lat_long <= 0.5\ngini = 0.514\nsamples = 29\nvalue = [9, 18, 2]\nclass = 1", fillcolor="#a6f3c6"] ;
10 -> 11 ;
12 [label="gini = 0.49\nsamples = 14\nvalue = [6, 8, 0]\nclass = 1", fillcolor="#cef8e0"] ;
11 -> 12 ;
13 [label="gini = 0.498\nsamples = 15\nvalue = [3, 10, 2]\nclass = 1", fillcolor="#8cf0b6"] ;
11 -> 13 ;
14 [label="disc_bathrooms <= 0.5\ngini = 0.552\nsamples = 23\nvalue = [13, 8, 2]\nclass = 0", fillcolor="#f6d5bd"] ;
10 -> 14 ;
15 [label="gini = 0.375\nsamples = 12\nvalue = [9, 3, 0]\nclass = 0", fillcolor="#eeab7b"] ;
14 -> 15 ;
16 [label="gini = 0.628\nsamples = 11\nvalue = [4, 5, 2]\nclass = 1", fillcolor="#e3fbed"] ;
14 -> 16 ;
17 [label="disc_floors <= 0.5\ngini = 0.605\nsamples = 213\nvalue = [37, 65, 111]\nclass = 2", fillcolor="#d8c1f7"] ;
1 -> 17 ;
18 [label="disc_grade <= 0.5\ngini = 0.447\nsamples = 104\nvalue = [10, 20, 74]\nclass = 2", fillcolor="#ae80ee"] ;
17 -> 18 ;
19 [label="gini = 0.372\nsamples = 67\nvalue = [8, 7, 52]\nclass = 2", fillcolor="#a16bec"] ;
18 -> 19 ;
20 [label="disc_bedrooms <= 0.5\ngini = 0.52\nsamples = 37\nvalue = [2, 13, 22]\nclass = 2", fillcolor="#d0b5f5"] ;
18 -> 20 ;
21 [label="gini = 0.563\nsamples = 25\nvalue = [2, 10, 13]\nclass = 2", fillcolor="#e6d7fa"] ;
20 -> 21 ;
22 [label="gini = 0.375\nsamples = 12\nvalue = [0, 3, 9]\nclass = 2", fillcolor="#ab7bee"] ;
20 -> 22 ;
23 [label="disc_yr_built <= 0.5\ngini = 0.653\nsamples = 109\nvalue = [27, 45, 37]\nclass = 1", fillcolor="#e9fcf1"] ;
17 -> 23 ;
24 [label="disc_bedrooms <= 0.5\ngini = 0.648\nsamples = 77\nvalue = [23, 34, 20]\nclass = 1", fillcolor="#d7fae5"] ;
23 -> 24 ;
25 [label="disc_grade <= 1.5\ngini = 0.665\nsamples = 53\nvalue = [19, 18, 16]\nclass = 0", fillcolor="#fefbf9"] ;
24 -> 25 ;
26 [label="gini = 0.609\nsamples = 17\nvalue = [4, 4, 9]\nclass = 2", fillcolor="#cfb3f5"] ;
25 -> 26 ;
27 [label="gini = 0.637\nsamples = 36\nvalue = [15, 14, 7]\nclass = 0", fillcolor="#fef9f6"] ;
25 -> 27 ;
28 [label="gini = 0.5\nsamples = 24\nvalue = [4, 16, 4]\nclass = 1", fillcolor="#88efb3"] ;
24 -> 28 ;
29 [label="disc_sqft_living15 <= 0.5\ngini = 0.584\nsamples = 32\nvalue = [4, 11, 17]\nclass = 2", fillcolor="#dbc6f8"] ;
23 -> 29 ;
30 [label="gini = 0.512\nsamples = 22\nvalue = [2, 6, 14]\nclass = 2", fillcolor="#c09cf2"] ;
29 -> 30 ;
31 [label="gini = 0.62\nsamples = 10\nvalue = [2, 5, 3]\nclass = 1", fillcolor="#c6f8db"] ;
29 -> 31 ;
32 [label="disc_sqft_basement <= 0.5\ngini = 0.569\nsamples = 243\nvalue = [121, 102, 20]\nclass = 0", fillcolor="#fbeee4"] ;
0 -> 32 [labeldistance=2.5, labelangle=-45, headlabel="False"] ;
33 [label="disc_condition <= 0.5\ngini = 0.402\nsamples = 72\nvalue = [53, 17, 2]\nclass = 0", fillcolor="#eead7d"] ;
32 -> 33 ;
34 [label="gini = 0.54\nsamples = 21\nvalue = [11, 9, 1]\nclass = 0", fillcolor="#fbeade"] ;
33 -> 34 ;
35 [label="disc_floors <= 0.5\ngini = 0.297\nsamples = 51\nvalue = [42, 8, 1]\nclass = 0", fillcolor="#ea9b62"] ;
33 -> 35 ;
36 [label="gini = 0.147\nsamples = 25\nvalue = [23, 2, 0]\nclass = 0", fillcolor="#e78c4a"] ;
35 -> 36 ;
37 [label="disc_lat_long <= 0.5\ngini = 0.411\nsamples = 26\nvalue = [19, 6, 1]\nclass = 0", fillcolor="#eead7e"] ;
35 -> 37 ;
38 [label="gini = 0.231\nsamples = 15\nvalue = [13, 2, 0]\nclass = 0", fillcolor="#e99457"] ;
37 -> 38 ;
39 [label="gini = 0.562\nsamples = 11\nvalue = [6, 4, 1]\nclass = 0", fillcolor="#f8dbc6"] ;
37 -> 39 ;
40 [label="disc_bedrooms <= 0.5\ngini = 0.584\nsamples = 171\nvalue = [68, 85, 18]\nclass = 1", fillcolor="#defbea"] ;
32 -> 40 ;
41 [label="disc_lat_long <= 0.5\ngini = 0.492\nsamples = 43\nvalue = [7, 29, 7]\nclass = 1", fillcolor="#86efb2"] ;
40 -> 41 ;
42 [label="gini = 0.451\nsamples = 30\nvalue = [7, 21, 2]\nclass = 1", fillcolor="#86efb2"] ;
41 -> 42 ;
43 [label="gini = 0.473\nsamples = 13\nvalue = [0, 8, 5]\nclass = 1", fillcolor="#b5f5d0"] ;
41 -> 43 ;
44 [label="disc_yr_built <= 0.5\ngini = 0.574\nsamples = 128\nvalue = [61, 56, 11]\nclass = 0", fillcolor="#fdf6f1"] ;
40 -> 44 ;
45 [label="disc_grade <= 1.5\ngini = 0.584\nsamples = 42\nvalue = [22, 15, 5]\nclass = 0", fillcolor="#f8decc"] ;
44 -> 45 ;
46 [label="gini = 0.614\nsamples = 25\nvalue = [9, 12, 4]\nclass = 1", fillcolor="#dafae7"] ;
45 -> 46 ;
47 [label="gini = 0.381\nsamples = 17\nvalue = [13, 3, 1]\nclass = 0", fillcolor="#eca572"] ;
45 -> 47 ;
48 [label="disc_grade <= 1.5\ngini = 0.562\nsamples = 86\nvalue = [39, 41, 6]\nclass = 1", fillcolor="#f7fefa"] ;
44 -> 48 ;
49 [label="gini = 0.538\nsamples = 68\nvalue = [35, 30, 3]\nclass = 0", fillcolor="#fceee5"] ;
48 -> 49 ;
50 [label="gini = 0.549\nsamples = 18\nvalue = [4, 11, 3]\nclass = 1", fillcolor="#9cf2c0"] ;
48 -> 50 ;
}