digraph Tree {
node [shape=box, style="filled, rounded", color="black", fontname=helvetica] ;
edge [fontname=helvetica] ;
0 [label="discretization_sqft_living <= 0.5\ngini = 0.494\nsamples = 564\nvalue = [314, 250]\nclass = False", fillcolor="#fae5d7"] ;
1 [label="discretization_sqft_basement <= 1.5\ngini = 0.476\nsamples = 313\nvalue = [122, 191]\nclass = True", fillcolor="#b7dcf6"] ;
0 -> 1 [labeldistance=2.5, labelangle=45, headlabel="True"] ;
2 [label="discretization_bathrooms <= 0.5\ngini = 0.46\nsamples = 295\nvalue = [106, 189]\nclass = True", fillcolor="#a8d4f4"] ;
1 -> 2 ;
3 [label="discretization_grade <= 2.5\ngini = 0.492\nsamples = 153\nvalue = [67, 86]\nclass = True", fillcolor="#d3e9f9"] ;
2 -> 3 ;
4 [label="discretization_condition <= 0.5\ngini = 0.5\nsamples = 131\nvalue = [64, 67]\nclass = True", fillcolor="#f6fbfe"] ;
3 -> 4 ;
5 [label="discretization_yr_built <= 0.5\ngini = 0.49\nsamples = 72\nvalue = [41, 31]\nclass = False", fillcolor="#f9e0cf"] ;
4 -> 5 ;
6 [label="discretization_sqft_lot <= 0.5\ngini = 0.44\nsamples = 52\nvalue = [35, 17]\nclass = False", fillcolor="#f2be99"] ;
5 -> 6 ;
7 [label="discretization_yr_renovated <= 0.5\ngini = 0.408\nsamples = 49\nvalue = [35, 14]\nclass = False", fillcolor="#efb388"] ;
6 -> 7 ;
8 [label="discretization_floors <= 0.5\ngini = 0.38\nsamples = 47\nvalue = [35, 12]\nclass = False", fillcolor="#eeac7d"] ;
7 -> 8 ;
9 [label="discretization_sqft_above <= 0.5\ngini = 0.422\nsamples = 33\nvalue = [23, 10]\nclass = False", fillcolor="#f0b88f"] ;
8 -> 9 ;
10 [label="discretization_bedrooms <= 0.5\ngini = 0.498\nsamples = 15\nvalue = [8, 7]\nclass = False", fillcolor="#fcefe6"] ;
9 -> 10 ;
11 [label="(...)", fillcolor="#C0C0C0"] ;
10 -> 11 ;
12 [label="(...)", fillcolor="#C0C0C0"] ;
10 -> 12 ;
19 [label="discretization_sqft_living15 <= 1.0\ngini = 0.278\nsamples = 18\nvalue = [15, 3]\nclass = False", fillcolor="#ea9a61"] ;
9 -> 19 ;
20 [label="(...)", fillcolor="#C0C0C0"] ;
19 -> 20 ;
25 [label="(...)", fillcolor="#C0C0C0"] ;
19 -> 25 ;
26 [label="discretization_bedrooms <= 0.5\ngini = 0.245\nsamples = 14\nvalue = [12, 2]\nclass = False", fillcolor="#e9965a"] ;
8 -> 26 ;
27 [label="gini = 0.0\nsamples = 6\nvalue = [6, 0]\nclass = False", fillcolor="#e58139"] ;
26 -> 27 ;
28 [label="discretization_sqft_living15 <= 1.0\ngini = 0.375\nsamples = 8\nvalue = [6, 2]\nclass = False", fillcolor="#eeab7b"] ;
26 -> 28 ;
29 [label="(...)", fillcolor="#C0C0C0"] ;
28 -> 29 ;
32 [label="(...)", fillcolor="#C0C0C0"] ;
28 -> 32 ;
33 [label="gini = 0.0\nsamples = 2\nvalue = [0, 2]\nclass = True", fillcolor="#399de5"] ;
7 -> 33 ;
34 [label="gini = 0.0\nsamples = 3\nvalue = [0, 3]\nclass = True", fillcolor="#399de5"] ;
6 -> 34 ;
35 [label="discretization_yr_built <= 1.5\ngini = 0.42\nsamples = 20\nvalue = [6, 14]\nclass = True", fillcolor="#8ec7f0"] ;
5 -> 35 ;
36 [label="discretization_sqft_above <= 0.5\ngini = 0.305\nsamples = 16\nvalue = [3, 13]\nclass = True", fillcolor="#67b4eb"] ;
35 -> 36 ;
37 [label="discretization_sqft_basement <= 0.5\ngini = 0.153\nsamples = 12\nvalue = [1, 11]\nclass = True", fillcolor="#4ba6e7"] ;
36 -> 37 ;
38 [label="discretization_grade <= 1.0\ngini = 0.375\nsamples = 4\nvalue = [1, 3]\nclass = True", fillcolor="#7bbeee"] ;
37 -> 38 ;
39 [label="gini = 0.444\nsamples = 3\nvalue = [1, 2]\nclass = True", fillcolor="#9ccef2"] ;
38 -> 39 ;
40 [label="gini = 0.0\nsamples = 1\nvalue = [0, 1]\nclass = True", fillcolor="#399de5"] ;
38 -> 40 ;
41 [label="gini = 0.0\nsamples = 8\nvalue = [0, 8]\nclass = True", fillcolor="#399de5"] ;
37 -> 41 ;
42 [label="discretization_sqft_living15 <= 1.0\ngini = 0.5\nsamples = 4\nvalue = [2, 2]\nclass = False", fillcolor="#ffffff"] ;
36 -> 42 ;
43 [label="discretization_bedrooms <= 0.5\ngini = 0.444\nsamples = 3\nvalue = [1, 2]\nclass = True", fillcolor="#9ccef2"] ;
42 -> 43 ;
44 [label="gini = 0.5\nsamples = 2\nvalue = [1, 1]\nclass = False", fillcolor="#ffffff"] ;
43 -> 44 ;
45 [label="gini = 0.0\nsamples = 1\nvalue = [0, 1]\nclass = True", fillcolor="#399de5"] ;
43 -> 45 ;
46 [label="gini = 0.0\nsamples = 1\nvalue = [1, 0]\nclass = False", fillcolor="#e58139"] ;
42 -> 46 ;
47 [label="discretization_grade <= 1.0\ngini = 0.375\nsamples = 4\nvalue = [3, 1]\nclass = False", fillcolor="#eeab7b"] ;
35 -> 47 ;
48 [label="gini = 0.0\nsamples = 1\nvalue = [0, 1]\nclass = True", fillcolor="#399de5"] ;
47 -> 48 ;
49 [label="gini = 0.0\nsamples = 3\nvalue = [3, 0]\nclass = False", fillcolor="#e58139"] ;
47 -> 49 ;
50 [label="discretization_sqft_lot <= 0.5\ngini = 0.476\nsamples = 59\nvalue = [23, 36]\nclass = True", fillcolor="#b8dcf6"] ;
4 -> 50 ;
51 [label="discretization_sqft_living15 <= 0.5\ngini = 0.459\nsamples = 56\nvalue = [20, 36]\nclass = True", fillcolor="#a7d3f3"] ;
50 -> 51 ;
52 [label="discretization_sqft_basement <= 0.5\ngini = 0.269\nsamples = 25\nvalue = [4, 21]\nclass = True", fillcolor="#5fb0ea"] ;
51 -> 52 ;
53 [label="discretization_grade <= 1.0\ngini = 0.397\nsamples = 11\nvalue = [3, 8]\nclass = True", fillcolor="#83c2ef"] ;
52 -> 53 ;
54 [label="discretization_bedrooms <= 0.5\ngini = 0.346\nsamples = 9\nvalue = [2, 7]\nclass = True", fillcolor="#72b9ec"] ;
53 -> 54 ;
55 [label="discretization_condition <= 1.5\ngini = 0.444\nsamples = 6\nvalue = [2, 4]\nclass = True", fillcolor="#9ccef2"] ;
54 -> 55 ;
56 [label="(...)", fillcolor="#C0C0C0"] ;
55 -> 56 ;
59 [label="(...)", fillcolor="#C0C0C0"] ;
55 -> 59 ;
60 [label="gini = 0.0\nsamples = 3\nvalue = [0, 3]\nclass = True", fillcolor="#399de5"] ;
54 -> 60 ;
61 [label="discretization_bedrooms <= 0.5\ngini = 0.5\nsamples = 2\nvalue = [1, 1]\nclass = False", fillcolor="#ffffff"] ;
53 -> 61 ;
62 [label="gini = 0.0\nsamples = 1\nvalue = [0, 1]\nclass = True", fillcolor="#399de5"] ;
61 -> 62 ;
63 [label="gini = 0.0\nsamples = 1\nvalue = [1, 0]\nclass = False", fillcolor="#e58139"] ;
61 -> 63 ;
64 [label="discretization_bedrooms <= 0.5\ngini = 0.133\nsamples = 14\nvalue = [1, 13]\nclass = True", fillcolor="#48a5e7"] ;
52 -> 64 ;
65 [label="discretization_grade <= 1.0\ngini = 0.219\nsamples = 8\nvalue = [1, 7]\nclass = True", fillcolor="#55abe9"] ;
64 -> 65 ;
66 [label="gini = 0.278\nsamples = 6\nvalue = [1, 5]\nclass = True", fillcolor="#61b1ea"] ;
65 -> 66 ;
67 [label="gini = 0.0\nsamples = 2\nvalue = [0, 2]\nclass = True", fillcolor="#399de5"] ;
65 -> 67 ;
68 [label="gini = 0.0\nsamples = 6\nvalue = [0, 6]\nclass = True", fillcolor="#399de5"] ;
64 -> 68 ;
69 [label="discretization_condition <= 1.5\ngini = 0.499\nsamples = 31\nvalue = [16, 15]\nclass = False", fillcolor="#fdf7f3"] ;
51 -> 69 ;
70 [label="discretization_sqft_living15 <= 1.5\ngini = 0.495\nsamples = 29\nvalue = [16, 13]\nclass = False", fillcolor="#fae7da"] ;
69 -> 70 ;
71 [label="gini = 0.0\nsamples = 2\nvalue = [2, 0]\nclass = False", fillcolor="#e58139"] ;
70 -> 71 ;
72 [label="discretization_yr_built <= 1.0\ngini = 0.499\nsamples = 27\nvalue = [14, 13]\nclass = False", fillcolor="#fdf6f1"] ;
70 -> 72 ;
73 [label="discretization_sqft_above <= 0.5\ngini = 0.495\nsamples = 20\nvalue = [9, 11]\nclass = True", fillcolor="#dbedfa"] ;
72 -> 73 ;
74 [label="(...)", fillcolor="#C0C0C0"] ;
73 -> 74 ;
85 [label="(...)", fillcolor="#C0C0C0"] ;
73 -> 85 ;
88 [label="discretization_grade <= 1.0\ngini = 0.408\nsamples = 7\nvalue = [5, 2]\nclass = False", fillcolor="#efb388"] ;
72 -> 88 ;
89 [label="(...)", fillcolor="#C0C0C0"] ;
88 -> 89 ;
90 [label="(...)", fillcolor="#C0C0C0"] ;
88 -> 90 ;
95 [label="gini = 0.0\nsamples = 2\nvalue = [0, 2]\nclass = True", fillcolor="#399de5"] ;
69 -> 95 ;
96 [label="gini = 0.0\nsamples = 3\nvalue = [3, 0]\nclass = False", fillcolor="#e58139"] ;
50 -> 96 ;
97 [label="discretization_floors <= 0.5\ngini = 0.236\nsamples = 22\nvalue = [3, 19]\nclass = True", fillcolor="#58ace9"] ;
3 -> 97 ;
98 [label="discretization_sqft_living15 <= 0.5\ngini = 0.18\nsamples = 20\nvalue = [2, 18]\nclass = True", fillcolor="#4fa8e8"] ;
97 -> 98 ;
99 [label="discretization_bedrooms <= 0.5\ngini = 0.117\nsamples = 16\nvalue = [1, 15]\nclass = True", fillcolor="#46a4e7"] ;
98 -> 99 ;
100 [label="gini = 0.0\nsamples = 7\nvalue = [0, 7]\nclass = True", fillcolor="#399de5"] ;
99 -> 100 ;
101 [label="discretization_yr_built <= 0.5\ngini = 0.198\nsamples = 9\nvalue = [1, 8]\nclass = True", fillcolor="#52a9e8"] ;
99 -> 101 ;
102 [label="gini = 0.0\nsamples = 2\nvalue = [0, 2]\nclass = True", fillcolor="#399de5"] ;
101 -> 102 ;
103 [label="discretization_view <= 0.5\ngini = 0.245\nsamples = 7\nvalue = [1, 6]\nclass = True", fillcolor="#5aade9"] ;
101 -> 103 ;
104 [label="discretization_sqft_above <= 0.5\ngini = 0.278\nsamples = 6\nvalue = [1, 5]\nclass = True", fillcolor="#61b1ea"] ;
103 -> 104 ;
105 [label="gini = 0.0\nsamples = 1\nvalue = [0, 1]\nclass = True", fillcolor="#399de5"] ;
104 -> 105 ;
106 [label="gini = 0.32\nsamples = 5\nvalue = [1, 4]\nclass = True", fillcolor="#6ab6ec"] ;
104 -> 106 ;
107 [label="gini = 0.0\nsamples = 1\nvalue = [0, 1]\nclass = True", fillcolor="#399de5"] ;
103 -> 107 ;
108 [label="discretization_bedrooms <= 0.5\ngini = 0.375\nsamples = 4\nvalue = [1, 3]\nclass = True", fillcolor="#7bbeee"] ;
98 -> 108 ;
109 [label="gini = 0.0\nsamples = 1\nvalue = [1, 0]\nclass = False", fillcolor="#e58139"] ;
108 -> 109 ;
110 [label="gini = 0.0\nsamples = 3\nvalue = [0, 3]\nclass = True", fillcolor="#399de5"] ;
108 -> 110 ;
111 [label="discretization_sqft_living15 <= 0.5\ngini = 0.5\nsamples = 2\nvalue = [1, 1]\nclass = False", fillcolor="#ffffff"] ;
97 -> 111 ;
112 [label="gini = 0.0\nsamples = 1\nvalue = [1, 0]\nclass = False", fillcolor="#e58139"] ;
111 -> 112 ;
113 [label="gini = 0.0\nsamples = 1\nvalue = [0, 1]\nclass = True", fillcolor="#399de5"] ;
111 -> 113 ;
114 [label="discretization_floors <= 0.5\ngini = 0.398\nsamples = 142\nvalue = [39, 103]\nclass = True", fillcolor="#84c2ef"] ;
2 -> 114 ;
115 [label="discretization_bathrooms <= 1.5\ngini = 0.455\nsamples = 20\nvalue = [13, 7]\nclass = False", fillcolor="#f3c5a4"] ;
114 -> 115 ;
116 [label="discretization_sqft_living15 <= 0.5\ngini = 0.401\nsamples = 18\nvalue = [13, 5]\nclass = False", fillcolor="#efb185"] ;
115 -> 116 ;
117 [label="discretization_grade <= 1.0\ngini = 0.198\nsamples = 9\nvalue = [8, 1]\nclass = False", fillcolor="#e89152"] ;
116 -> 117 ;
118 [label="discretization_sqft_basement <= 0.5\ngini = 0.444\nsamples = 3\nvalue = [2, 1]\nclass = False", fillcolor="#f2c09c"] ;
117 -> 118 ;
119 [label="gini = 0.0\nsamples = 1\nvalue = [1, 0]\nclass = False", fillcolor="#e58139"] ;
118 -> 119 ;
120 [label="gini = 0.5\nsamples = 2\nvalue = [1, 1]\nclass = False", fillcolor="#ffffff"] ;
118 -> 120 ;
121 [label="gini = 0.0\nsamples = 6\nvalue = [6, 0]\nclass = False", fillcolor="#e58139"] ;
117 -> 121 ;
122 [label="discretization_yr_built <= 1.5\ngini = 0.494\nsamples = 9\nvalue = [5, 4]\nclass = False", fillcolor="#fae6d7"] ;
116 -> 122 ;
123 [label="discretization_yr_built <= 0.5\ngini = 0.469\nsamples = 8\nvalue = [5, 3]\nclass = False", fillcolor="#f5cdb0"] ;
122 -> 123 ;
124 [label="discretization_condition <= 0.5\ngini = 0.49\nsamples = 7\nvalue = [4, 3]\nclass = False", fillcolor="#f8e0ce"] ;
123 -> 124 ;
125 [label="gini = 0.444\nsamples = 3\nvalue = [2, 1]\nclass = False", fillcolor="#f2c09c"] ;
124 -> 125 ;
126 [label="discretization_grade <= 1.0\ngini = 0.5\nsamples = 4\nvalue = [2, 2]\nclass = False", fillcolor="#ffffff"] ;
124 -> 126 ;
127 [label="gini = 0.444\nsamples = 3\nvalue = [2, 1]\nclass = False", fillcolor="#f2c09c"] ;
126 -> 127 ;
128 [label="gini = 0.0\nsamples = 1\nvalue = [0, 1]\nclass = True", fillcolor="#399de5"] ;
126 -> 128 ;
129 [label="gini = 0.0\nsamples = 1\nvalue = [1, 0]\nclass = False", fillcolor="#e58139"] ;
123 -> 129 ;
130 [label="gini = 0.0\nsamples = 1\nvalue = [0, 1]\nclass = True", fillcolor="#399de5"] ;
122 -> 130 ;
131 [label="gini = 0.0\nsamples = 2\nvalue = [0, 2]\nclass = True", fillcolor="#399de5"] ;
115 -> 131 ;
132 [label="discretization_bedrooms <= 0.5\ngini = 0.335\nsamples = 122\nvalue = [26, 96]\nclass = True", fillcolor="#6fb8ec"] ;
114 -> 132 ;
133 [label="discretization_sqft_basement <= 0.5\ngini = 0.488\nsamples = 26\nvalue = [11, 15]\nclass = True", fillcolor="#cae5f8"] ;
132 -> 133 ;
134 [label="discretization_view <= 0.5\ngini = 0.494\nsamples = 18\nvalue = [10, 8]\nclass = False", fillcolor="#fae6d7"] ;
133 -> 134 ;
135 [label="discretization_sqft_lot <= 0.5\ngini = 0.484\nsamples = 17\nvalue = [10, 7]\nclass = False", fillcolor="#f7d9c4"] ;
134 -> 135 ;
136 [label="discretization_bathrooms <= 1.5\ngini = 0.469\nsamples = 16\nvalue = [10, 6]\nclass = False", fillcolor="#f5cdb0"] ;
135 -> 136 ;
137 [label="discretization_grade <= 1.0\ngini = 0.49\nsamples = 14\nvalue = [8, 6]\nclass = False", fillcolor="#f8e0ce"] ;
136 -> 137 ;
138 [label="gini = 0.444\nsamples = 3\nvalue = [1, 2]\nclass = True", fillcolor="#9ccef2"] ;
137 -> 138 ;
139 [label="discretization_sqft_living15 <= 1.5\ngini = 0.463\nsamples = 11\nvalue = [7, 4]\nclass = False", fillcolor="#f4c9aa"] ;
137 -> 139 ;
140 [label="(...)", fillcolor="#C0C0C0"] ;
139 -> 140 ;
141 [label="(...)", fillcolor="#C0C0C0"] ;
139 -> 141 ;
148 [label="gini = 0.0\nsamples = 2\nvalue = [2, 0]\nclass = False", fillcolor="#e58139"] ;
136 -> 148 ;
149 [label="gini = 0.0\nsamples = 1\nvalue = [0, 1]\nclass = True", fillcolor="#399de5"] ;
135 -> 149 ;
150 [label="gini = 0.0\nsamples = 1\nvalue = [0, 1]\nclass = True", fillcolor="#399de5"] ;
134 -> 150 ;
151 [label="discretization_condition <= 0.5\ngini = 0.219\nsamples = 8\nvalue = [1, 7]\nclass = True", fillcolor="#55abe9"] ;
133 -> 151 ;
152 [label="discretization_yr_built <= 1.0\ngini = 0.5\nsamples = 2\nvalue = [1, 1]\nclass = False", fillcolor="#ffffff"] ;
151 -> 152 ;
153 [label="gini = 0.0\nsamples = 1\nvalue = [1, 0]\nclass = False", fillcolor="#e58139"] ;
152 -> 153 ;
154 [label="gini = 0.0\nsamples = 1\nvalue = [0, 1]\nclass = True", fillcolor="#399de5"] ;
152 -> 154 ;
155 [label="gini = 0.0\nsamples = 6\nvalue = [0, 6]\nclass = True", fillcolor="#399de5"] ;
151 -> 155 ;
156 [label="discretization_sqft_above <= 0.5\ngini = 0.264\nsamples = 96\nvalue = [15, 81]\nclass = True", fillcolor="#5eafea"] ;
132 -> 156 ;
157 [label="discretization_floors <= 1.5\ngini = 0.229\nsamples = 91\nvalue = [12, 79]\nclass = True", fillcolor="#57ace9"] ;
156 -> 157 ;
158 [label="discretization_grade <= 1.0\ngini = 0.215\nsamples = 90\nvalue = [11, 79]\nclass = True", fillcolor="#55abe9"] ;
157 -> 158 ;
159 [label="discretization_yr_built <= 1.0\ngini = 0.308\nsamples = 21\nvalue = [4, 17]\nclass = True", fillcolor="#68b4eb"] ;
158 -> 159 ;
160 [label="discretization_sqft_lot15 <= 0.5\ngini = 0.408\nsamples = 14\nvalue = [4, 10]\nclass = True", fillcolor="#88c4ef"] ;
159 -> 160 ;
161 [label="discretization_sqft_basement <= 0.5\ngini = 0.426\nsamples = 13\nvalue = [4, 9]\nclass = True", fillcolor="#91c9f1"] ;
160 -> 161 ;
162 [label="(...)", fillcolor="#C0C0C0"] ;
161 -> 162 ;
169 [label="(...)", fillcolor="#C0C0C0"] ;
161 -> 169 ;
172 [label="gini = 0.0\nsamples = 1\nvalue = [0, 1]\nclass = True", fillcolor="#399de5"] ;
160 -> 172 ;
173 [label="gini = 0.0\nsamples = 7\nvalue = [0, 7]\nclass = True", fillcolor="#399de5"] ;
159 -> 173 ;
174 [label="discretization_yr_built <= 1.0\ngini = 0.182\nsamples = 69\nvalue = [7, 62]\nclass = True", fillcolor="#4fa8e8"] ;
158 -> 174 ;
175 [label="discretization_sqft_basement <= 0.5\ngini = 0.059\nsamples = 33\nvalue = [1, 32]\nclass = True", fillcolor="#3fa0e6"] ;
174 -> 175 ;
176 [label="discretization_condition <= 0.5\ngini = 0.142\nsamples = 13\nvalue = [1, 12]\nclass = True", fillcolor="#49a5e7"] ;
175 -> 176 ;
177 [label="(...)", fillcolor="#C0C0C0"] ;
176 -> 177 ;
182 [label="(...)", fillcolor="#C0C0C0"] ;
176 -> 182 ;
183 [label="gini = 0.0\nsamples = 20\nvalue = [0, 20]\nclass = True", fillcolor="#399de5"] ;
175 -> 183 ;
184 [label="discretization_sqft_living15 <= 1.0\ngini = 0.278\nsamples = 36\nvalue = [6, 30]\nclass = True", fillcolor="#61b1ea"] ;
174 -> 184 ;
185 [label="gini = 0.0\nsamples = 4\nvalue = [0, 4]\nclass = True", fillcolor="#399de5"] ;
184 -> 185 ;
186 [label="discretization_sqft_basement <= 0.5\ngini = 0.305\nsamples = 32\nvalue = [6, 26]\nclass = True", fillcolor="#67b4eb"] ;
184 -> 186 ;
187 [label="(...)", fillcolor="#C0C0C0"] ;
186 -> 187 ;
188 [label="(...)", fillcolor="#C0C0C0"] ;
186 -> 188 ;
199 [label="gini = 0.0\nsamples = 1\nvalue = [1, 0]\nclass = False", fillcolor="#e58139"] ;
157 -> 199 ;
200 [label="discretization_sqft_living15 <= 1.0\ngini = 0.48\nsamples = 5\nvalue = [3, 2]\nclass = False", fillcolor="#f6d5bd"] ;
156 -> 200 ;
201 [label="discretization_bathrooms <= 2.0\ngini = 0.444\nsamples = 3\nvalue = [1, 2]\nclass = True", fillcolor="#9ccef2"] ;
200 -> 201 ;
202 [label="gini = 0.0\nsamples = 2\nvalue = [0, 2]\nclass = True", fillcolor="#399de5"] ;
201 -> 202 ;
203 [label="gini = 0.0\nsamples = 1\nvalue = [1, 0]\nclass = False", fillcolor="#e58139"] ;
201 -> 203 ;
204 [label="gini = 0.0\nsamples = 2\nvalue = [2, 0]\nclass = False", fillcolor="#e58139"] ;
200 -> 204 ;
205 [label="discretization_view <= 0.5\ngini = 0.198\nsamples = 18\nvalue = [16, 2]\nclass = False", fillcolor="#e89152"] ;
1 -> 205 ;
206 [label="discretization_bedrooms <= 0.5\ngini = 0.111\nsamples = 17\nvalue = [16, 1]\nclass = False", fillcolor="#e78945"] ;
205 -> 206 ;
207 [label="discretization_yr_built <= 1.0\ngini = 0.278\nsamples = 6\nvalue = [5, 1]\nclass = False", fillcolor="#ea9a61"] ;
206 -> 207 ;
208 [label="discretization_sqft_living15 <= 1.0\ngini = 0.444\nsamples = 3\nvalue = [2, 1]\nclass = False", fillcolor="#f2c09c"] ;
207 -> 208 ;
209 [label="gini = 0.0\nsamples = 2\nvalue = [2, 0]\nclass = False", fillcolor="#e58139"] ;
208 -> 209 ;
210 [label="gini = 0.0\nsamples = 1\nvalue = [0, 1]\nclass = True", fillcolor="#399de5"] ;
208 -> 210 ;
211 [label="gini = 0.0\nsamples = 3\nvalue = [3, 0]\nclass = False", fillcolor="#e58139"] ;
207 -> 211 ;
212 [label="gini = 0.0\nsamples = 11\nvalue = [11, 0]\nclass = False", fillcolor="#e58139"] ;
206 -> 212 ;
213 [label="gini = 0.0\nsamples = 1\nvalue = [0, 1]\nclass = True", fillcolor="#399de5"] ;
205 -> 213 ;
214 [label="discretization_sqft_basement <= 1.5\ngini = 0.36\nsamples = 251\nvalue = [192, 59]\nclass = False", fillcolor="#eda876"] ;
0 -> 214 [labeldistance=2.5, labelangle=-45, headlabel="False"] ;
215 [label="discretization_sqft_above <= 1.5\ngini = 0.398\nsamples = 204\nvalue = [148, 56]\nclass = False", fillcolor="#efb184"] ;
214 -> 215 ;
216 [label="discretization_bathrooms <= 0.5\ngini = 0.494\nsamples = 85\nvalue = [47, 38]\nclass = False", fillcolor="#fae7d9"] ;
215 -> 216 ;
217 [label="discretization_sqft_living15 <= 1.5\ngini = 0.494\nsamples = 65\nvalue = [29, 36]\nclass = True", fillcolor="#d9ecfa"] ;
216 -> 217 ;
218 [label="discretization_grade <= 2.0\ngini = 0.487\nsamples = 62\nvalue = [26, 36]\nclass = True", fillcolor="#c8e4f8"] ;
217 -> 218 ;
219 [label="discretization_sqft_lot15 <= 0.5\ngini = 0.436\nsamples = 28\nvalue = [9, 19]\nclass = True", fillcolor="#97cbf1"] ;
218 -> 219 ;
220 [label="discretization_sqft_living15 <= 0.5\ngini = 0.393\nsamples = 26\nvalue = [7, 19]\nclass = True", fillcolor="#82c1ef"] ;
219 -> 220 ;
221 [label="discretization_condition <= 1.5\ngini = 0.48\nsamples = 15\nvalue = [6, 9]\nclass = True", fillcolor="#bddef6"] ;
220 -> 221 ;
222 [label="discretization_sqft_lot <= 0.5\ngini = 0.49\nsamples = 14\nvalue = [6, 8]\nclass = True", fillcolor="#cee6f8"] ;
221 -> 222 ;
223 [label="discretization_grade <= 0.5\ngini = 0.497\nsamples = 13\nvalue = [6, 7]\nclass = True", fillcolor="#e3f1fb"] ;
222 -> 223 ;
224 [label="(...)", fillcolor="#C0C0C0"] ;
223 -> 224 ;
237 [label="(...)", fillcolor="#C0C0C0"] ;
223 -> 237 ;
238 [label="gini = 0.0\nsamples = 1\nvalue = [0, 1]\nclass = True", fillcolor="#399de5"] ;
222 -> 238 ;
239 [label="gini = 0.0\nsamples = 1\nvalue = [0, 1]\nclass = True", fillcolor="#399de5"] ;
221 -> 239 ;
240 [label="discretization_bedrooms <= 0.5\ngini = 0.165\nsamples = 11\nvalue = [1, 10]\nclass = True", fillcolor="#4da7e8"] ;
220 -> 240 ;
241 [label="gini = 0.0\nsamples = 8\nvalue = [0, 8]\nclass = True", fillcolor="#399de5"] ;
240 -> 241 ;
242 [label="discretization_bedrooms <= 1.5\ngini = 0.444\nsamples = 3\nvalue = [1, 2]\nclass = True", fillcolor="#9ccef2"] ;
240 -> 242 ;
243 [label="gini = 0.0\nsamples = 1\nvalue = [1, 0]\nclass = False", fillcolor="#e58139"] ;
242 -> 243 ;
244 [label="gini = 0.0\nsamples = 2\nvalue = [0, 2]\nclass = True", fillcolor="#399de5"] ;
242 -> 244 ;
245 [label="gini = 0.0\nsamples = 2\nvalue = [2, 0]\nclass = False", fillcolor="#e58139"] ;
219 -> 245 ;
246 [label="discretization_condition <= 0.5\ngini = 0.5\nsamples = 34\nvalue = [17, 17]\nclass = False", fillcolor="#ffffff"] ;
218 -> 246 ;
247 [label="discretization_bedrooms <= 0.5\ngini = 0.498\nsamples = 32\nvalue = [17, 15]\nclass = False", fillcolor="#fcf0e8"] ;
246 -> 247 ;
248 [label="discretization_yr_built <= 0.5\ngini = 0.426\nsamples = 13\nvalue = [9, 4]\nclass = False", fillcolor="#f1b991"] ;
247 -> 248 ;
249 [label="discretization_sqft_lot <= 0.5\ngini = 0.48\nsamples = 5\nvalue = [2, 3]\nclass = True", fillcolor="#bddef6"] ;
248 -> 249 ;
250 [label="discretization_sqft_living15 <= 0.5\ngini = 0.375\nsamples = 4\nvalue = [1, 3]\nclass = True", fillcolor="#7bbeee"] ;
249 -> 250 ;
251 [label="(...)", fillcolor="#C0C0C0"] ;
250 -> 251 ;
252 [label="(...)", fillcolor="#C0C0C0"] ;
250 -> 252 ;
253 [label="gini = 0.0\nsamples = 1\nvalue = [1, 0]\nclass = False", fillcolor="#e58139"] ;
249 -> 253 ;
254 [label="discretization_sqft_living15 <= 0.5\ngini = 0.219\nsamples = 8\nvalue = [7, 1]\nclass = False", fillcolor="#e99355"] ;
248 -> 254 ;
255 [label="gini = 0.0\nsamples = 3\nvalue = [3, 0]\nclass = False", fillcolor="#e58139"] ;
254 -> 255 ;
256 [label="discretization_sqft_basement <= 0.5\ngini = 0.32\nsamples = 5\nvalue = [4, 1]\nclass = False", fillcolor="#eca06a"] ;
254 -> 256 ;
257 [label="(...)", fillcolor="#C0C0C0"] ;
256 -> 257 ;
258 [label="(...)", fillcolor="#C0C0C0"] ;
256 -> 258 ;
259 [label="discretization_yr_renovated <= 0.5\ngini = 0.488\nsamples = 19\nvalue = [8, 11]\nclass = True", fillcolor="#c9e4f8"] ;
247 -> 259 ;
260 [label="discretization_sqft_living15 <= 0.5\ngini = 0.494\nsamples = 18\nvalue = [8, 10]\nclass = True", fillcolor="#d7ebfa"] ;
259 -> 260 ;
261 [label="discretization_yr_built <= 0.5\ngini = 0.49\nsamples = 14\nvalue = [6, 8]\nclass = True", fillcolor="#cee6f8"] ;
260 -> 261 ;
262 [label="(...)", fillcolor="#C0C0C0"] ;
261 -> 262 ;
265 [label="(...)", fillcolor="#C0C0C0"] ;
261 -> 265 ;
268 [label="discretization_yr_built <= 0.5\ngini = 0.5\nsamples = 4\nvalue = [2, 2]\nclass = False", fillcolor="#ffffff"] ;
260 -> 268 ;
269 [label="(...)", fillcolor="#C0C0C0"] ;
268 -> 269 ;
270 [label="(...)", fillcolor="#C0C0C0"] ;
268 -> 270 ;
271 [label="gini = 0.0\nsamples = 1\nvalue = [0, 1]\nclass = True", fillcolor="#399de5"] ;
259 -> 271 ;
272 [label="gini = 0.0\nsamples = 2\nvalue = [0, 2]\nclass = True", fillcolor="#399de5"] ;
246 -> 272 ;
273 [label="gini = 0.0\nsamples = 3\nvalue = [3, 0]\nclass = False", fillcolor="#e58139"] ;
217 -> 273 ;
274 [label="discretization_bedrooms <= 0.5\ngini = 0.18\nsamples = 20\nvalue = [18, 2]\nclass = False", fillcolor="#e88f4f"] ;
216 -> 274 ;
275 [label="gini = 0.0\nsamples = 9\nvalue = [9, 0]\nclass = False", fillcolor="#e58139"] ;
274 -> 275 ;
276 [label="discretization_bedrooms <= 1.5\ngini = 0.298\nsamples = 11\nvalue = [9, 2]\nclass = False", fillcolor="#eb9d65"] ;
274 -> 276 ;
277 [label="discretization_yr_built <= 1.5\ngini = 0.444\nsamples = 6\nvalue = [4, 2]\nclass = False", fillcolor="#f2c09c"] ;
276 -> 277 ;
278 [label="discretization_sqft_lot <= 0.5\ngini = 0.32\nsamples = 5\nvalue = [4, 1]\nclass = False", fillcolor="#eca06a"] ;
277 -> 278 ;
279 [label="discretization_yr_built <= 0.5\ngini = 0.444\nsamples = 3\nvalue = [2, 1]\nclass = False", fillcolor="#f2c09c"] ;
278 -> 279 ;
280 [label="gini = 0.0\nsamples = 1\nvalue = [0, 1]\nclass = True", fillcolor="#399de5"] ;
279 -> 280 ;
281 [label="gini = 0.0\nsamples = 2\nvalue = [2, 0]\nclass = False", fillcolor="#e58139"] ;
279 -> 281 ;
282 [label="gini = 0.0\nsamples = 2\nvalue = [2, 0]\nclass = False", fillcolor="#e58139"] ;
278 -> 282 ;
283 [label="gini = 0.0\nsamples = 1\nvalue = [0, 1]\nclass = True", fillcolor="#399de5"] ;
277 -> 283 ;
284 [label="gini = 0.0\nsamples = 5\nvalue = [5, 0]\nclass = False", fillcolor="#e58139"] ;
276 -> 284 ;
285 [label="discretization_view <= 0.5\ngini = 0.257\nsamples = 119\nvalue = [101, 18]\nclass = False", fillcolor="#ea975c"] ;
215 -> 285 ;
286 [label="discretization_grade <= 2.5\ngini = 0.236\nsamples = 117\nvalue = [101, 16]\nclass = False", fillcolor="#e99558"] ;
285 -> 286 ;
287 [label="discretization_grade <= 1.5\ngini = 0.324\nsamples = 59\nvalue = [47, 12]\nclass = False", fillcolor="#eca16c"] ;
286 -> 287 ;
288 [label="discretization_grade <= 0.5\ngini = 0.307\nsamples = 58\nvalue = [47, 11]\nclass = False", fillcolor="#eb9e67"] ;
287 -> 288 ;
289 [label="discretization_sqft_living15 <= 0.5\ngini = 0.153\nsamples = 24\nvalue = [22, 2]\nclass = False", fillcolor="#e78c4b"] ;
288 -> 289 ;
290 [label="gini = 0.0\nsamples = 10\nvalue = [10, 0]\nclass = False", fillcolor="#e58139"] ;
289 -> 290 ;
291 [label="discretization_bathrooms <= 1.0\ngini = 0.245\nsamples = 14\nvalue = [12, 2]\nclass = False", fillcolor="#e9965a"] ;
289 -> 291 ;
292 [label="discretization_bedrooms <= 0.5\ngini = 0.153\nsamples = 12\nvalue = [11, 1]\nclass = False", fillcolor="#e78c4b"] ;
291 -> 292 ;
293 [label="discretization_floors <= 1.0\ngini = 0.219\nsamples = 8\nvalue = [7, 1]\nclass = False", fillcolor="#e99355"] ;
292 -> 293 ;
294 [label="(...)", fillcolor="#C0C0C0"] ;
293 -> 294 ;
297 [label="(...)", fillcolor="#C0C0C0"] ;
293 -> 297 ;
298 [label="gini = 0.0\nsamples = 4\nvalue = [4, 0]\nclass = False", fillcolor="#e58139"] ;
292 -> 298 ;
299 [label="gini = 0.5\nsamples = 2\nvalue = [1, 1]\nclass = False", fillcolor="#ffffff"] ;
291 -> 299 ;
300 [label="discretization_sqft_living15 <= 0.5\ngini = 0.389\nsamples = 34\nvalue = [25, 9]\nclass = False", fillcolor="#eeae80"] ;
288 -> 300 ;
301 [label="gini = 0.0\nsamples = 2\nvalue = [0, 2]\nclass = True", fillcolor="#399de5"] ;
300 -> 301 ;
302 [label="discretization_sqft_lot <= 0.5\ngini = 0.342\nsamples = 32\nvalue = [25, 7]\nclass = False", fillcolor="#eca470"] ;
300 -> 302 ;
303 [label="discretization_bathrooms <= 1.0\ngini = 0.397\nsamples = 22\nvalue = [16, 6]\nclass = False", fillcolor="#efb083"] ;
302 -> 303 ;
304 [label="discretization_sqft_lot15 <= 0.5\ngini = 0.332\nsamples = 19\nvalue = [15, 4]\nclass = False", fillcolor="#eca36e"] ;
303 -> 304 ;
305 [label="(...)", fillcolor="#C0C0C0"] ;
304 -> 305 ;
316 [label="(...)", fillcolor="#C0C0C0"] ;
304 -> 316 ;
317 [label="discretization_floors <= 1.0\ngini = 0.444\nsamples = 3\nvalue = [1, 2]\nclass = True", fillcolor="#9ccef2"] ;
303 -> 317 ;
318 [label="(...)", fillcolor="#C0C0C0"] ;
317 -> 318 ;
319 [label="(...)", fillcolor="#C0C0C0"] ;
317 -> 319 ;
320 [label="discretization_floors <= 0.5\ngini = 0.18\nsamples = 10\nvalue = [9, 1]\nclass = False", fillcolor="#e88f4f"] ;
302 -> 320 ;
321 [label="gini = 0.0\nsamples = 9\nvalue = [9, 0]\nclass = False", fillcolor="#e58139"] ;
320 -> 321 ;
322 [label="gini = 0.0\nsamples = 1\nvalue = [0, 1]\nclass = True", fillcolor="#399de5"] ;
320 -> 322 ;
323 [label="gini = 0.0\nsamples = 1\nvalue = [0, 1]\nclass = True", fillcolor="#399de5"] ;
287 -> 323 ;
324 [label="discretization_yr_built <= 0.5\ngini = 0.128\nsamples = 58\nvalue = [54, 4]\nclass = False", fillcolor="#e78a48"] ;
286 -> 324 ;
325 [label="discretization_bedrooms <= 0.5\ngini = 0.32\nsamples = 5\nvalue = [4, 1]\nclass = False", fillcolor="#eca06a"] ;
324 -> 325 ;
326 [label="discretization_condition <= 0.5\ngini = 0.5\nsamples = 2\nvalue = [1, 1]\nclass = False", fillcolor="#ffffff"] ;
325 -> 326 ;
327 [label="gini = 0.0\nsamples = 1\nvalue = [0, 1]\nclass = True", fillcolor="#399de5"] ;
326 -> 327 ;
328 [label="gini = 0.0\nsamples = 1\nvalue = [1, 0]\nclass = False", fillcolor="#e58139"] ;
326 -> 328 ;
329 [label="gini = 0.0\nsamples = 3\nvalue = [3, 0]\nclass = False", fillcolor="#e58139"] ;
325 -> 329 ;
330 [label="discretization_sqft_living15 <= 0.5\ngini = 0.107\nsamples = 53\nvalue = [50, 3]\nclass = False", fillcolor="#e78945"] ;
324 -> 330 ;
331 [label="gini = 0.375\nsamples = 4\nvalue = [3, 1]\nclass = False", fillcolor="#eeab7b"] ;
330 -> 331 ;
332 [label="discretization_bedrooms <= 0.5\ngini = 0.078\nsamples = 49\nvalue = [47, 2]\nclass = False", fillcolor="#e68641"] ;
330 -> 332 ;
333 [label="discretization_bathrooms <= 1.0\ngini = 0.095\nsamples = 40\nvalue = [38, 2]\nclass = False", fillcolor="#e68843"] ;
332 -> 333 ;
334 [label="discretization_sqft_living15 <= 1.5\ngini = 0.114\nsamples = 33\nvalue = [31, 2]\nclass = False", fillcolor="#e78946"] ;
333 -> 334 ;
335 [label="discretization_floors <= 1.0\ngini = 0.121\nsamples = 31\nvalue = [29, 2]\nclass = False", fillcolor="#e78a47"] ;
334 -> 335 ;
336 [label="(...)", fillcolor="#C0C0C0"] ;
335 -> 336 ;
341 [label="(...)", fillcolor="#C0C0C0"] ;
335 -> 341 ;
342 [label="gini = 0.0\nsamples = 2\nvalue = [2, 0]\nclass = False", fillcolor="#e58139"] ;
334 -> 342 ;
343 [label="gini = 0.0\nsamples = 7\nvalue = [7, 0]\nclass = False", fillcolor="#e58139"] ;
333 -> 343 ;
344 [label="gini = 0.0\nsamples = 9\nvalue = [9, 0]\nclass = False", fillcolor="#e58139"] ;
332 -> 344 ;
345 [label="gini = 0.0\nsamples = 2\nvalue = [0, 2]\nclass = True", fillcolor="#399de5"] ;
285 -> 345 ;
346 [label="discretization_view <= 0.5\ngini = 0.12\nsamples = 47\nvalue = [44, 3]\nclass = False", fillcolor="#e78a46"] ;
214 -> 346 ;
347 [label="gini = 0.0\nsamples = 41\nvalue = [41, 0]\nclass = False", fillcolor="#e58139"] ;
346 -> 347 ;
348 [label="discretization_grade <= 0.5\ngini = 0.5\nsamples = 6\nvalue = [3, 3]\nclass = False", fillcolor="#ffffff"] ;
346 -> 348 ;
349 [label="gini = 0.0\nsamples = 2\nvalue = [0, 2]\nclass = True", fillcolor="#399de5"] ;
348 -> 349 ;
350 [label="discretization_sqft_above <= 0.5\ngini = 0.375\nsamples = 4\nvalue = [3, 1]\nclass = False", fillcolor="#eeab7b"] ;
348 -> 350 ;
351 [label="gini = 0.0\nsamples = 1\nvalue = [0, 1]\nclass = True", fillcolor="#399de5"] ;
350 -> 351 ;
352 [label="gini = 0.0\nsamples = 3\nvalue = [3, 0]\nclass = False", fillcolor="#e58139"] ;
350 -> 352 ;
}